/*
 * model_sw.h
 *
 *  Created on: 18-Oct-2021
 *      Author: Asrar
 */

#ifndef SRC_MODEL_SW_H_
#define SRC_MODEL_SW_H_

typedef float dataType;

dataType l1weights[104][52]={
			{0.015622,-0.118225,-0.216345,0.087524,0.103408,-0.257011,-0.146548,0.069903,0.013814,0.014035,-0.040006,-0.253056,-0.069315,0.095431,-0.173083,-0.085477,0.036833,0.122120,-0.066324,-0.075206,0.009255,0.146178,-0.019650,0.142067,0.027454,0.031346,-0.240769,0.053807,0.121753,0.119201,0.234918,0.121578,0.019032,-0.131507,-0.052606,0.158118,-0.033236,-0.043719,-0.114136,-0.149605,0.039071,-0.056052,-0.061718,0.051228,0.134713,0.100022,-0.142806,-0.048505,-0.084823,0.101552,-0.037126,0.088339},
			{0.068933,0.049082,0.014130,-0.104489,0.149704,-0.203339,0.000991,-0.041159,0.138566,-0.045635,0.004831,-0.138682,-0.075059,-0.146256,-0.186896,0.094229,0.029530,0.103387,-0.052581,0.050165,0.000204,0.044107,-0.034954,-0.014555,0.061277,0.039234,-0.134573,0.343200,0.021754,0.210124,0.171168,0.050602,-0.112127,-0.040845,0.061296,0.208924,-0.037357,0.057496,-0.324747,-0.142393,0.019304,-0.123123,0.121722,-0.076426,-0.038517,-0.043050,0.080577,0.001887,-0.052695,-0.027471,-0.133667,0.050442},
			{-0.063232,0.220224,-0.061702,-0.061969,0.170974,-0.084334,-0.054960,-0.027829,0.057996,-0.121633,-0.017514,0.100749,-0.002106,-0.170390,-0.068084,0.154756,-0.039303,-0.010836,-0.013424,0.036155,0.071102,-0.044232,-0.060333,-0.274354,0.102124,-0.022435,-0.095171,0.337535,-0.023876,0.070127,0.112893,-0.047013,-0.080483,0.005953,0.074314,0.208693,0.076531,0.035823,-0.252244,-0.047891,0.029053,-0.071653,0.066584,-0.222654,-0.043711,-0.048172,0.025576,-0.054204,0.069003,0.003827,-0.121782,-0.020287},
			{-0.067195,0.264770,0.189614,-0.008580,0.067499,0.179398,0.019867,0.028153,-0.037938,-0.066515,-0.051662,0.206105,0.051910,-0.051614,0.174785,0.117380,0.003535,-0.186228,-0.131000,-0.009287,0.155724,-0.118117,-0.043559,-0.149127,0.056121,0.059677,-0.057660,-0.008902,-0.000141,-0.112798,-0.111148,-0.093986,-0.069616,-0.024268,-0.053585,0.047196,-0.067064,0.030706,-0.070649,0.080026,-0.033065,-0.034033,0.081920,-0.095387,-0.057155,-0.130735,0.010160,0.030535,0.093611,-0.081724,0.062626,-0.147628},
			{-0.017641,0.119528,0.185541,-0.027527,-0.067631,0.307471,0.073878,-0.051336,-0.085635,0.002515,-0.054074,0.135036,0.111856,0.012508,0.131217,-0.068593,0.024646,-0.208749,-0.002450,0.088142,-0.025096,-0.162535,0.040261,-0.078015,0.009781,0.034215,0.157457,-0.069473,-0.090575,-0.228039,-0.206192,-0.079407,0.050017,0.025342,0.065348,0.127628,0.033307,0.157270,0.090141,0.027609,-0.084123,0.028480,0.042072,0.029588,-0.083751,-0.119781,0.002430,0.005820,0.073435,0.033790,0.164418,-0.150674},
			{0.023072,-0.099243,0.107788,0.020227,-0.131072,0.157464,0.045236,-0.037111,-0.024645,-0.057138,-0.005621,0.005843,0.058218,0.067632,0.204177,-0.162279,-0.028611,0.006443,0.025615,0.103397,-0.024617,-0.039867,-0.088149,0.034373,0.077338,-0.048545,0.024645,-0.285845,-0.029318,-0.093952,-0.119276,-0.051089,0.090081,0.030705,-0.053479,0.150115,0.034776,0.014124,0.232309,0.073757,0.057889,0.125718,-0.005451,0.164066,-0.060676,-0.029481,-0.171175,0.014188,0.061361,-0.004066,0.074037,0.009859},
			{0.026185,-0.093725,-0.069887,-0.014148,-0.055059,-0.122374,0.043454,0.116798,-0.090751,-0.062598,0.121578,-0.200046,0.022436,-0.061392,0.045047,-0.144887,-0.046366,0.137152,-0.028733,-0.057915,-0.052656,0.016210,-0.139767,0.116750,-0.020381,-0.051013,0.142164,-0.225841,-0.056440,0.088153,-0.036988,-0.020279,0.047336,0.017207,-0.038196,0.030076,0.009303,-0.040684,0.131466,0.049350,-0.028478,0.102349,-0.000230,0.127192,-0.024335,0.132052,-0.047651,0.062897,-0.059029,-0.012416,0.012864,-0.099981},
			{-0.069237,-0.145747,-0.069349,-0.045217,-0.018199,-0.114719,0.032353,0.035228,0.178806,-0.046915,0.132005,0.056062,-0.087667,-0.066531,-0.068570,-0.200625,0.079554,-0.006248,0.020323,-0.056713,0.025542,-0.007956,0.005225,0.138509,0.003852,0.004438,0.117874,0.029137,-0.100754,0.092068,0.110024,-0.013775,-0.021846,0.017325,0.022000,-0.049474,0.061939,-0.127015,-0.089806,-0.115346,0.047494,0.021756,0.009001,0.129564,-0.053411,0.000182,0.108096,-0.079593,-0.040472,-0.072478,-0.188556,0.068386},
			{-0.062788,-0.098968,-0.058809,-0.084488,0.000503,-0.025224,0.054327,-0.011221,0.167813,0.032939,0.109755,0.006059,-0.049366,0.016349,-0.142193,0.048047,0.022607,0.064779,-0.013412,0.009601,-0.042814,-0.058443,0.025280,0.081985,-0.057418,-0.046334,0.153383,0.183967,0.110505,0.095432,0.132424,0.072868,-0.013207,-0.033029,0.030436,-0.163278,0.022585,-0.043591,-0.110181,-0.000610,0.010054,-0.049393,-0.063430,0.095015,-0.035394,0.111115,0.155397,-0.044511,-0.047559,-0.078505,-0.096020,0.057770},
			{0.057234,0.018191,0.040705,-0.069942,-0.013669,0.163661,0.044020,-0.135205,-0.039900,0.062477,-0.054840,0.085202,-0.080807,0.191926,-0.095196,0.049748,0.076011,-0.016837,0.012645,0.038725,-0.003445,-0.037394,0.181778,-0.034731,-0.048502,0.018003,-0.026464,0.046107,0.135502,-0.174062,0.197471,0.070329,-0.066343,-0.107982,0.053080,-0.193722,-0.072537,0.104082,-0.142834,-0.047634,0.050472,-0.000085,-0.086595,-0.000322,0.023627,0.056506,0.094891,0.002632,-0.073829,-0.050919,0.010025,0.063490},
			{0.084643,0.130021,-0.067491,0.067198,-0.025322,0.099802,-0.077349,-0.116228,-0.137136,0.020112,-0.118401,0.064741,-0.024225,0.208512,-0.010914,0.158195,0.023819,0.068543,0.046114,0.037695,0.065133,0.047660,0.062560,-0.134349,-0.019488,-0.083474,-0.073518,-0.033220,0.171617,-0.099302,0.114401,0.043590,0.090203,0.021960,-0.141826,-0.131296,0.052435,0.157752,-0.023634,-0.093717,0.033755,-0.029898,-0.086983,-0.120561,0.011455,-0.047746,-0.072004,0.048590,0.041632,0.099331,0.148340,0.090668},
			{0.074834,0.111948,-0.043579,0.166311,-0.021790,-0.034685,-0.136184,0.054531,-0.229874,-0.083254,-0.148804,-0.128427,-0.030202,0.073163,0.039108,0.075216,-0.050744,0.075952,0.034613,0.020623,-0.085571,0.017527,0.034227,-0.102732,-0.076850,0.053302,-0.220704,-0.176566,0.031940,0.132402,-0.093944,0.054039,0.020483,-0.059102,-0.128698,-0.049991,0.052619,0.191261,0.051125,-0.009530,0.046908,-0.021191,-0.023997,-0.115425,0.048084,0.019265,-0.110134,0.052055,0.037591,0.087874,0.136483,-0.008194},
			{-0.026595,-0.039086,-0.132424,0.133386,0.031892,-0.220855,0.030051,0.166396,-0.031796,-0.078691,-0.133185,-0.109764,-0.000969,-0.042319,0.101824,-0.019217,0.004864,0.109260,0.016635,-0.003233,0.071497,0.029650,-0.088683,-0.053990,0.075693,-0.086475,-0.120498,-0.036663,0.010716,0.150519,-0.032926,-0.031560,-0.067866,-0.053551,0.038708,0.125858,-0.095860,0.007673,0.124599,0.043707,-0.016110,-0.061128,0.039854,0.003374,0.021697,-0.097985,-0.010996,-0.018159,-0.002839,-0.014521,0.030946,-0.057970},
			{-0.054465,-0.117720,0.009496,-0.087317,0.171352,-0.153526,0.004903,0.140583,0.158045,-0.098000,0.049102,0.027651,0.115773,-0.055123,0.106122,-0.065710,0.018327,0.098193,-0.080665,0.060458,0.080473,-0.008554,-0.176037,0.123709,-0.027764,-0.027421,-0.156115,-0.086139,0.017291,0.086581,0.031966,-0.017904,-0.149000,0.003984,0.047737,0.061176,0.008638,0.013756,-0.014720,0.080083,-0.006218,-0.073771,0.128098,0.049016,-0.078575,-0.097103,0.118923,-0.059289,0.050097,-0.062025,-0.134390,-0.124127},
			{-0.050983,-0.060772,0.076755,-0.112141,0.117460,0.119189,0.019781,0.014586,0.159350,-0.126525,0.165602,0.159255,0.059422,-0.069190,0.027463,-0.063627,0.028601,-0.042052,-0.068445,0.093456,0.117398,-0.159254,0.037858,0.114891,0.108890,0.030402,-0.016730,0.043844,0.077056,-0.143967,0.048935,-0.033463,-0.009360,-0.035495,0.077968,0.047456,0.000039,-0.125916,-0.110174,0.164728,-0.104501,-0.126264,0.061042,0.145233,0.019433,-0.072753,0.149351,-0.080964,0.056501,-0.200452,-0.185614,-0.002488},
			{0.049193,-0.129331,0.105472,-0.072168,-0.004687,0.227968,0.135845,-0.115562,-0.025815,-0.004629,0.191204,0.091829,-0.041118,0.121755,-0.056825,-0.052776,-0.047068,-0.034911,0.018723,0.020204,0.004802,-0.000435,0.103753,0.037582,0.095206,0.044126,0.049272,0.165689,0.009459,-0.186598,-0.009439,-0.110095,-0.002322,-0.062991,0.135559,0.099230,0.052621,-0.094173,-0.232564,0.025895,-0.053310,0.058925,-0.022581,0.037871,-0.003092,0.010033,0.023542,-0.064872,-0.039925,0.021405,0.013791,-0.061801},
			{0.023144,0.015595,0.117202,0.040523,-0.169648,0.173044,-0.056144,-0.159466,-0.074504,0.135556,0.079614,-0.043758,-0.057180,0.035043,0.034685,-0.010334,-0.020205,-0.070955,0.035858,0.012068,-0.038120,-0.052744,0.146698,0.009727,0.041217,-0.023952,0.102476,0.188602,-0.009283,-0.233263,0.099456,0.020091,0.060223,-0.045440,-0.055906,0.011093,0.058939,-0.150288,-0.180550,0.065300,-0.045087,0.126975,-0.094620,-0.081603,-0.033550,-0.040563,-0.056349,-0.022784,-0.000398,-0.014574,0.088362,-0.022716},
			{-0.047651,0.208010,0.065595,0.075456,-0.116269,0.130159,-0.018864,-0.073205,-0.198776,0.131028,0.114453,-0.043428,-0.130109,-0.017351,0.023612,0.046458,-0.026792,-0.110927,0.028918,-0.080956,-0.043472,-0.079036,-0.017334,-0.192672,0.018268,-0.057317,0.095087,0.098944,-0.152625,-0.135490,-0.078262,0.150950,0.129053,0.090999,-0.064115,0.038803,0.004633,-0.084725,-0.048561,-0.123091,0.011951,0.190988,-0.208185,-0.005791,0.012915,0.128911,-0.064014,0.014449,-0.081618,0.041329,0.152401,0.143550},
			{-0.056048,0.111174,-0.048471,-0.042260,-0.041799,-0.149156,0.049801,0.078861,-0.007241,0.067300,-0.121593,-0.024029,-0.168484,-0.163993,0.025645,0.048928,-0.106132,-0.032775,-0.052023,-0.046999,0.003963,0.042235,-0.042130,-0.066722,0.053273,-0.023481,0.202533,-0.074503,-0.064543,0.073586,-0.022645,0.026567,-0.053130,0.063534,0.010457,-0.076682,0.064065,0.075843,0.091363,-0.120962,-0.036803,0.021540,-0.013950,-0.019462,-0.020334,0.010810,-0.080431,-0.013419,-0.075130,0.095884,0.065416,0.138221},
			{0.013102,-0.002300,-0.054444,-0.033738,0.116597,-0.194610,0.093579,0.204906,0.051216,-0.056863,-0.179647,0.073298,-0.023705,-0.103497,0.011886,0.008351,0.008210,0.077689,0.002591,-0.079468,-0.014004,0.080103,-0.117972,-0.099761,0.001710,-0.001050,0.121102,-0.117376,-0.002456,0.145643,0.065481,0.035410,-0.036388,0.072543,0.008023,-0.076693,0.004885,0.244731,0.110548,0.009212,-0.007392,-0.077201,0.029927,-0.021101,0.039488,-0.050919,0.015263,-0.054691,0.076902,-0.031466,-0.080882,-0.045569},
			{-0.018822,-0.131982,-0.044797,-0.084074,0.078253,-0.048670,0.006079,-0.010277,0.244855,-0.205839,-0.117050,0.150605,-0.067531,0.173893,-0.043200,-0.012118,0.041019,0.014050,0.073829,-0.001068,0.009251,-0.024642,-0.094086,0.168818,-0.060417,-0.023191,0.060836,-0.130021,-0.037949,0.041634,-0.013112,-0.000840,0.011199,-0.103939,0.140725,-0.245798,-0.003498,0.123542,0.206105,-0.052962,0.050367,-0.136333,0.093671,-0.024448,0.044654,-0.086124,0.034748,-0.108618,0.075831,-0.170538,-0.235756,0.018481},
			{-0.037518,-0.283925,-0.042688,0.053906,-0.030574,0.090165,-0.049080,-0.139231,0.116764,-0.093809,-0.089655,-0.001473,0.056345,0.095192,-0.021023,0.031096,0.060300,0.075980,-0.000991,0.034204,-0.069429,0.034304,0.121997,0.236370,0.005358,-0.036296,-0.045890,0.000090,0.080570,-0.105381,0.027272,-0.030817,-0.007995,-0.094304,0.065253,-0.174387,-0.075573,0.080312,-0.045642,0.025561,0.097166,0.005061,0.046920,-0.032569,0.113035,-0.060465,-0.022811,-0.021627,0.131089,-0.038905,-0.064131,-0.059212},
			{-0.033094,-0.179709,-0.033263,0.148263,-0.066918,0.092588,-0.076892,-0.152410,-0.052909,-0.089137,-0.070353,0.005884,0.016879,0.147617,0.113222,0.020296,0.054941,0.051388,-0.066893,-0.035846,-0.051946,0.096106,0.157633,0.228302,-0.052120,0.083448,-0.179333,0.151470,0.094373,-0.172079,-0.061057,0.044046,0.095342,0.012284,-0.081694,0.027053,0.026322,-0.037153,-0.169131,0.070589,0.068328,0.108052,0.068821,-0.134764,0.053542,-0.005344,-0.151337,-0.011548,-0.032020,-0.010448,-0.016085,-0.021993},
			{0.011658,0.004345,0.019064,0.149964,-0.139358,-0.041206,-0.065016,-0.156581,-0.180323,-0.007866,0.181686,-0.010897,0.105730,0.042478,0.068649,0.034813,-0.151976,-0.010314,-0.008686,0.004976,-0.031341,0.015115,0.119803,-0.019845,0.076724,-0.023448,-0.180812,0.207543,-0.001267,0.051276,-0.049766,-0.002312,0.031214,0.023144,-0.133343,-0.002520,-0.019793,-0.074851,-0.191522,-0.026044,-0.004458,0.119639,0.033725,-0.017506,0.042467,0.083834,-0.187368,0.011599,0.027250,0.233313,0.177136,-0.055748},
			{0.041971,0.139151,0.060001,0.027472,-0.001187,-0.117580,-0.106854,-0.024574,-0.091030,0.136047,0.132358,-0.010215,0.061988,-0.120693,-0.016361,-0.048035,0.049685,-0.033860,-0.045155,0.027594,0.067699,-0.008742,-0.036487,-0.271752,0.009355,-0.061626,-0.113321,0.186572,0.078689,0.078821,-0.007637,-0.040192,-0.041251,-0.020790,-0.105823,0.050043,0.056011,-0.112238,-0.040920,-0.002241,0.026281,0.010700,-0.092898,0.065471,0.048918,0.084900,0.018720,-0.009927,-0.149827,0.093449,0.142249,-0.050514},
			{0.087481,0.254226,0.115207,-0.059910,0.053496,-0.008708,0.060642,0.122120,0.033089,0.033917,0.047987,0.117833,0.009621,-0.159247,-0.006659,-0.165273,0.007651,-0.152674,-0.028734,0.067079,0.116338,-0.079408,-0.038654,-0.227141,-0.005269,-0.013282,0.021552,-0.174095,0.004086,-0.019821,-0.002720,-0.046173,-0.069821,0.028836,0.070434,0.102893,0.031611,-0.067377,0.141592,-0.029367,-0.087633,-0.128102,-0.032567,0.096762,-0.096164,-0.002374,0.023399,-0.087525,-0.124393,-0.160378,-0.060672,0.053402},
			{0.074645,-0.183522,0.119651,-0.060186,0.010136,0.289406,0.064130,0.012781,0.108682,0.074420,-0.128024,0.102647,-0.014486,0.118872,-0.036375,0.045469,-0.008905,-0.083881,-0.074565,0.054373,-0.018398,-0.092932,0.018935,0.116381,0.061042,-0.010589,0.093909,-0.171285,-0.050538,-0.303396,0.040772,0.001362,-0.052943,-0.033629,0.188071,0.062703,-0.022264,0.094131,0.175007,-0.076866,-0.083565,-0.027073,0.023182,-0.000228,-0.083620,-0.007444,0.015377,-0.149223,0.001231,-0.123356,-0.131178,0.095116},
			{0.062314,-0.179196,0.021480,0.004415,-0.057727,0.047328,0.058197,0.011628,-0.079525,-0.050962,-0.095895,-0.195690,-0.072413,0.123344,0.062071,0.155230,-0.085673,0.021113,0.030741,-0.069198,-0.116348,-0.106248,0.036417,0.194557,0.055577,-0.011802,0.157088,-0.032440,-0.054816,-0.066756,-0.097098,-0.039106,0.042490,0.058393,0.127146,-0.014802,0.017043,0.174774,-0.022682,-0.101215,-0.039450,0.047046,-0.030076,-0.222022,-0.020233,-0.077875,-0.073433,-0.000213,-0.004849,-0.040316,-0.061101,0.057891},
			{-0.061344,-0.091575,-0.054405,0.084297,-0.044202,-0.090024,-0.080995,-0.097720,-0.093319,-0.058938,-0.085652,-0.147357,-0.083240,-0.031853,0.092306,0.091500,-0.056265,0.066651,0.009677,-0.046825,-0.094960,0.047857,-0.058647,0.151381,-0.020045,-0.052550,0.120297,0.193991,-0.088916,0.038060,-0.104199,0.037527,0.065241,0.094828,-0.118694,-0.112928,0.094337,-0.007183,-0.135141,-0.137979,0.026493,0.033671,0.062462,-0.170746,-0.046845,-0.008221,-0.048435,-0.039241,0.010443,0.023554,0.122436,0.076287},
			{0.017000,0.091208,-0.006902,-0.000067,0.029113,-0.102526,0.043552,-0.013265,-0.190599,-0.107636,-0.012514,0.024524,-0.042616,-0.083767,0.078167,-0.083491,0.030985,0.072669,0.022592,-0.047130,-0.050908,0.024312,-0.007746,0.058467,0.009562,0.049614,0.158194,0.140054,-0.078591,0.086033,-0.119797,-0.052888,0.045661,-0.018834,-0.058137,-0.227309,-0.041104,-0.020035,-0.208893,-0.016886,0.069284,-0.002227,0.117524,0.074089,-0.045821,0.020679,-0.012644,0.056032,-0.005872,0.087859,0.129351,0.039587},
			{-0.118860,0.135301,-0.072131,-0.140872,0.059278,-0.158427,-0.052661,0.048442,-0.154186,-0.115232,0.006019,0.064394,0.048845,-0.000861,-0.037333,-0.192849,0.000188,0.016616,-0.004026,-0.048813,0.016414,0.038211,-0.015803,-0.161948,-0.053281,0.001010,-0.009706,-0.035059,0.112462,0.184764,0.087003,-0.058464,-0.064340,-0.074462,-0.090001,-0.121231,-0.071173,0.035527,-0.061434,0.075365,-0.040836,-0.053580,0.038266,0.153144,-0.063531,-0.108368,0.066505,0.082767,0.002281,0.081553,0.078856,-0.079805},
			{0.002571,0.221929,-0.025132,-0.039363,0.003899,-0.078620,-0.003795,0.062784,0.106464,0.058393,-0.147384,0.063842,0.162759,-0.014954,-0.329375,-0.139257,0.155365,0.010643,0.074811,-0.009551,-0.026065,-0.016423,-0.099446,-0.066529,-0.023734,0.022501,-0.195053,-0.105354,0.056527,0.064799,0.304082,-0.085884,0.056668,-0.079048,-0.077563,-0.114320,-0.025568,0.077369,0.009448,0.059705,-0.023922,0.001388,-0.021325,0.150616,0.088924,-0.001325,0.007217,-0.015058,-0.017324,0.041606,-0.048573,-0.109862},
			{0.035037,0.033761,-0.021339,0.020446,0.026262,0.097826,-0.078366,-0.039037,0.175896,0.151901,-0.094030,0.054224,0.082539,0.233868,-0.209294,0.010045,0.064098,-0.021971,-0.009391,0.095621,0.001932,-0.039068,-0.028204,-0.010215,0.010323,0.081421,-0.229339,-0.047013,0.022031,-0.095640,0.144007,-0.103777,0.084826,-0.113839,0.073865,-0.055770,-0.035342,0.136411,0.023819,0.044727,0.054278,0.099233,-0.044130,-0.005982,0.064470,0.023595,0.000364,0.030840,-0.010186,0.011566,-0.189347,-0.142264},
			{-0.020249,-0.072543,-0.033131,0.064197,-0.084831,-0.065443,-0.035860,0.039770,0.101598,0.161302,0.018987,0.010671,0.099967,0.126788,0.044137,0.220315,0.006371,-0.032636,0.008790,0.016654,0.060481,0.053406,-0.036937,0.115813,-0.017221,-0.010463,-0.255573,0.022580,-0.037821,0.002587,0.038467,-0.037663,0.109299,-0.045535,0.015992,0.210185,-0.000965,0.072731,0.014240,0.136165,0.094752,0.033126,-0.171197,-0.226300,-0.011260,0.015425,-0.105220,-0.049236,0.003841,-0.038590,-0.085612,-0.144939},
			{-0.053040,-0.237875,0.062233,0.100295,-0.044640,-0.041033,0.101671,0.098667,0.004122,-0.003862,0.123736,0.002514,0.053292,-0.083646,0.046070,0.178796,-0.006988,-0.004441,-0.047287,0.042840,0.063131,-0.014940,-0.046908,0.179333,0.125588,-0.001075,-0.111417,-0.007469,-0.032014,0.078159,-0.177673,0.112386,0.004683,0.038946,0.049321,0.161580,-0.022157,-0.093214,-0.112212,-0.077403,-0.020026,0.063241,-0.050811,-0.217001,0.036519,-0.009797,-0.095613,0.103945,-0.103651,-0.086747,-0.048008,0.070828},
			{-0.020963,-0.046033,-0.040305,0.010149,0.117453,-0.180983,0.097790,0.103206,-0.130050,-0.033405,0.152824,0.032294,-0.002071,-0.055565,0.150220,0.075718,-0.025282,-0.026480,-0.098590,-0.057020,0.082919,-0.009944,-0.010936,0.122096,-0.044596,0.025682,-0.103389,-0.058895,-0.010261,0.112950,-0.225813,0.108930,-0.069547,0.051128,0.047003,0.120488,-0.046410,-0.191783,-0.047121,-0.094573,-0.050385,-0.072823,-0.020855,-0.066801,0.018065,0.011993,-0.040534,-0.013461,-0.054619,-0.050988,0.139377,0.086984},
			{-0.050240,0.036223,0.122188,-0.078565,0.195418,0.038012,0.066923,0.042072,-0.224733,-0.122697,0.058534,0.007113,-0.077992,-0.033748,0.160571,-0.116824,-0.008654,-0.011877,-0.061350,0.016911,0.083788,-0.096794,-0.075853,-0.094751,0.017501,0.003438,-0.025673,-0.069895,0.037980,-0.044392,-0.066377,0.013317,-0.085242,-0.087536,0.066340,0.055267,0.071489,-0.146054,-0.012102,-0.123285,-0.037515,-0.083348,0.125941,0.109309,-0.049719,-0.047896,-0.019474,-0.032458,-0.021079,-0.063125,0.183622,0.087136},
			{-0.068937,0.054085,0.020882,-0.037849,0.119836,0.190161,0.015703,-0.028753,-0.117405,-0.076368,-0.011499,0.022614,0.005398,0.116568,-0.085869,-0.253518,0.087735,-0.110157,0.008764,0.002890,0.095152,-0.118174,0.032998,-0.147852,0.145208,0.052404,0.078046,-0.024620,0.047935,-0.220967,0.064696,0.025667,-0.000385,-0.018022,-0.041106,0.042490,0.035192,0.100045,0.042267,-0.015278,-0.109903,-0.000465,0.121299,0.273126,-0.075146,0.015419,0.055038,0.029248,0.046047,-0.003253,0.110416,0.030606},
			{-0.034439,0.180154,0.011643,-0.021615,-0.099631,0.045236,0.017248,-0.026127,0.067896,-0.032159,-0.078926,-0.105047,0.034681,0.060924,-0.140177,-0.138358,-0.049567,-0.023875,-0.032691,-0.066309,-0.101646,-0.068509,0.124895,-0.134884,0.022870,-0.057352,0.118830,-0.021578,-0.066478,-0.082355,0.099316,-0.018679,0.006017,0.075577,-0.099956,0.091864,-0.005228,0.183190,-0.021466,0.142152,-0.021125,-0.009898,-0.034335,0.178990,-0.011847,-0.091599,-0.023150,-0.038073,-0.064471,0.103072,-0.112856,-0.015963},
			{0.100901,-0.013612,-0.086915,0.090615,-0.161597,-0.018237,-0.065613,-0.015482,0.095149,0.122794,-0.213420,-0.129996,0.092180,-0.038354,-0.072663,-0.002463,-0.082301,0.035226,0.004176,-0.156827,-0.092973,0.076780,0.085792,0.000140,-0.048648,0.016256,0.185798,0.047964,-0.097506,0.009905,0.016242,-0.035269,0.008334,0.176679,-0.158605,0.075438,-0.009042,0.167072,-0.072230,0.047228,0.029846,0.086834,-0.170210,-0.037964,0.071018,-0.016553,-0.107667,0.006912,0.060195,0.120616,-0.159096,-0.024504},
			{0.001023,-0.146305,-0.121417,-0.005923,-0.055650,-0.138288,-0.018218,0.054302,0.079168,0.173536,-0.067000,0.018961,0.064872,-0.108019,0.145351,0.090955,-0.124227,0.086787,0.081206,-0.072974,-0.025921,-0.017493,-0.041400,0.098140,-0.015205,-0.045493,0.214553,0.031827,-0.097894,0.152797,-0.192878,0.000872,0.044132,0.164633,-0.100919,-0.123805,0.075265,0.116313,-0.064199,0.086612,0.040665,0.108791,-0.154601,-0.117645,-0.026332,0.011537,-0.019555,0.009536,0.041203,0.131488,-0.130388,-0.071136},
			{-0.032313,0.012378,-0.108679,-0.110513,-0.018655,-0.175396,-0.034593,0.148217,0.087123,0.128884,0.006318,0.015692,0.001302,-0.114546,0.097152,0.143515,0.057578,0.083369,0.090438,-0.005938,-0.030453,0.067224,-0.105667,0.083931,-0.075247,-0.005192,0.076902,0.104383,0.056731,0.151296,-0.163217,-0.042621,0.017117,0.005924,0.077695,-0.158905,-0.042199,-0.113090,-0.064925,0.064069,0.030725,-0.061460,-0.102960,-0.134558,0.042909,0.056233,0.080340,0.018760,0.026549,-0.081243,0.058613,-0.063011},
			{0.042743,-0.074881,-0.047146,-0.025295,0.095493,-0.151276,-0.013405,0.069384,-0.171085,0.139976,0.082448,0.059534,0.028891,-0.015216,0.018109,0.048970,0.112385,0.083350,0.063546,0.072001,-0.010634,-0.020615,-0.101297,-0.035448,0.025874,-0.062908,-0.057180,-0.115678,0.067286,0.186111,-0.027064,-0.021058,-0.082715,-0.093132,0.081019,-0.165418,-0.114141,-0.146232,0.022533,-0.010422,0.013083,-0.125194,-0.104003,-0.088297,0.053679,0.025658,0.017044,0.087396,-0.027581,-0.007110,0.148632,0.022728},
			{0.028065,0.105067,0.033595,0.021127,0.088316,-0.039113,-0.043934,0.056970,-0.128366,-0.110081,0.113119,-0.049402,0.025140,0.108694,-0.120116,0.049189,0.056832,-0.070367,0.017363,0.004647,0.036819,0.024398,-0.007007,-0.067103,0.021525,-0.007877,-0.188824,0.003767,0.267199,-0.016379,0.099018,0.014197,-0.018219,-0.159695,0.162003,-0.087957,0.048129,-0.027565,0.073512,0.026076,0.068933,-0.104057,0.167790,0.023245,0.046695,0.001898,0.099267,0.063117,-0.062361,-0.123898,0.090916,0.006234},
			{0.060692,0.115741,0.017911,-0.034815,-0.152486,0.143482,0.022145,-0.143034,-0.040739,-0.119053,-0.040085,-0.013869,-0.017846,0.157721,-0.142227,0.029058,0.007702,-0.064986,-0.096485,0.053363,0.012604,0.001711,0.173898,-0.054613,0.064878,-0.013002,-0.119181,-0.046732,0.008060,-0.134110,0.216405,0.069896,0.190991,-0.022844,0.124920,0.045622,-0.029432,-0.024446,0.106296,0.016549,-0.002856,0.111765,0.210224,-0.015487,0.059055,0.088495,-0.028602,-0.060321,0.026897,-0.082900,0.029991,-0.103761},
			{-0.030101,0.110451,0.063226,0.076934,-0.257148,-0.056556,-0.101681,-0.124361,0.152347,-0.144124,-0.115839,0.028122,-0.043274,-0.062543,-0.103417,-0.048392,-0.061955,-0.021376,0.049811,0.002341,0.067275,-0.024271,0.019555,-0.061356,-0.047420,-0.014589,-0.144274,-0.009024,-0.083223,-0.019106,0.086375,0.031209,0.140154,0.110848,-0.040885,0.113406,0.027396,0.073693,0.035484,-0.077446,0.061772,0.172436,0.156457,-0.011448,0.001947,0.030854,-0.117590,0.014163,-0.046202,-0.003954,-0.042692,0.062607},
			{0.024245,-0.106420,0.152889,0.029129,-0.056796,-0.061612,-0.055249,-0.067379,0.128607,-0.045933,-0.028122,0.108789,-0.075717,-0.151834,0.082809,-0.123021,-0.055925,-0.099123,-0.019446,0.008562,0.003441,-0.110684,0.020077,0.084126,-0.004565,0.022724,0.015047,0.049354,-0.030119,-0.015642,-0.168476,0.076542,0.124668,0.055908,-0.087836,0.174954,0.026965,0.117391,-0.049312,-0.115823,-0.088572,0.066399,0.053411,0.123661,0.093407,0.057552,-0.041610,-0.030005,0.039514,0.123403,-0.046655,0.155511},
			{0.017381,-0.095781,0.002334,-0.007060,0.062285,0.011194,-0.097418,0.090493,0.070230,0.189750,-0.115853,0.035414,-0.145355,0.004613,0.220468,-0.138396,0.058313,-0.021515,-0.067494,0.032675,0.094021,-0.033693,-0.014624,0.074894,-0.008496,0.006794,-0.085181,0.019891,-0.017407,-0.072499,-0.189900,0.176883,0.042372,-0.033347,-0.085894,0.084963,-0.032579,0.056571,0.002406,-0.146736,-0.021084,-0.008668,-0.170154,0.051903,-0.014413,0.027721,-0.033657,-0.037569,-0.002832,0.167743,-0.031354,0.140061},
			{-0.008774,-0.105796,0.087201,-0.016017,0.178979,0.179338,0.108643,0.033094,-0.102458,0.262328,0.037366,-0.012715,-0.066925,0.121890,0.089880,-0.062752,0.005066,-0.173941,0.030638,0.062833,0.030493,-0.059207,-0.010783,0.089564,0.081565,-0.057919,0.086600,0.066509,0.070966,-0.188430,-0.037563,0.032686,-0.130176,-0.116748,-0.056981,0.038644,0.006398,0.037906,0.007523,-0.060544,-0.057013,-0.118149,-0.259258,0.146358,0.000266,-0.109558,0.078216,-0.017357,0.133843,0.002275,0.055260,0.081350},
			{-0.057680,-0.095650,0.074998,-0.059309,0.207550,0.249439,0.012089,-0.008708,-0.130020,0.072888,-0.036993,-0.306246,-0.035852,0.135136,-0.107261,-0.040745,0.095066,-0.059351,-0.041357,-0.080005,-0.024469,-0.084927,0.024753,-0.021953,-0.009649,-0.020651,0.034785,0.021247,0.133712,-0.151728,0.048680,-0.014339,-0.163273,-0.048144,-0.010449,0.047997,0.034108,-0.041875,-0.086617,0.033012,-0.131450,-0.221090,-0.194293,-0.043775,-0.083528,-0.143779,0.010214,-0.067908,0.174830,0.024569,0.136119,-0.062011},
			{-0.008792,0.101152,-0.044435,0.051618,-0.038086,0.049601,0.093283,-0.033697,-0.056924,-0.072297,-0.074980,-0.269437,0.069178,-0.014701,-0.218614,0.131363,-0.066695,0.054884,-0.028996,-0.132769,-0.038779,0.046631,0.029859,-0.024369,-0.015437,0.031477,0.213476,0.054676,-0.108997,-0.172045,0.223414,-0.083331,-0.068916,0.152143,0.023759,0.081361,0.038445,0.012212,-0.054925,0.079303,-0.021160,0.042058,0.043153,-0.179231,-0.078337,-0.062574,0.060539,0.054951,-0.007439,-0.170024,0.043300,-0.094959},
			{-0.104234,0.153018,-0.160707,-0.082544,-0.113333,-0.177943,0.087786,0.061639,0.063018,-0.226942,0.087381,-0.019673,0.110411,-0.234472,-0.150135,0.202864,-0.100646,0.113049,0.043869,-0.136565,-0.101951,0.091810,-0.032318,-0.165560,-0.025552,-0.025351,0.324897,0.088036,-0.210743,0.073167,0.149262,-0.179810,0.138724,0.144339,0.051686,-0.005838,0.001614,-0.056298,-0.012622,0.310200,0.038441,0.124466,0.286951,-0.233474,-0.046083,0.112226,0.008176,-0.067712,0.011428,-0.032569,-0.048179,-0.204433},
			{0.046751,0.157323,0.069310,-0.107460,0.150867,-0.070358,0.019438,-0.056227,0.215797,-0.059414,0.000603,-0.037657,0.114413,-0.225634,-0.033427,0.204966,0.003745,0.015489,-0.059546,0.057310,0.031688,-0.034812,0.032206,-0.137675,0.032028,-0.006055,0.056624,0.257437,-0.095710,0.052990,-0.010723,-0.076476,-0.154696,0.092551,0.047118,0.225218,0.047622,-0.036314,-0.381827,0.038685,0.011644,-0.037479,0.082221,-0.171050,-0.028309,0.027930,0.010405,-0.036678,0.067011,-0.027803,-0.127909,-0.004811},
			{-0.008720,0.205927,0.260311,-0.165018,0.053876,0.103643,0.141803,0.012955,-0.019943,-0.076319,-0.020212,0.223957,0.028069,-0.191096,0.134294,0.100131,-0.024424,-0.214768,-0.059603,-0.015838,-0.037993,-0.101123,0.027961,-0.208387,0.031071,-0.052569,0.111203,0.169747,-0.120803,-0.131084,-0.107390,-0.061406,-0.046574,-0.000947,0.112927,0.157222,0.048157,-0.045848,-0.156297,0.053549,-0.022738,-0.051456,0.117651,-0.080172,-0.067526,-0.131277,0.122100,-0.109634,0.047207,-0.123670,-0.078959,-0.078232},
			{-0.019788,0.175165,0.170677,0.004986,-0.030953,0.255298,0.007406,-0.086987,-0.090142,-0.068472,0.047601,0.213233,-0.015020,-0.024972,0.181447,-0.013871,0.062306,-0.201925,-0.047214,0.020269,-0.023621,-0.161834,0.037103,-0.116825,-0.001487,-0.020401,0.170477,-0.063097,0.024240,-0.290434,-0.230340,-0.007285,0.022196,0.028820,0.055646,-0.045965,0.095607,-0.077787,-0.003135,0.146342,-0.045891,0.075987,0.065776,-0.042660,-0.032318,-0.116226,0.079450,-0.064872,0.178979,-0.141143,0.051602,-0.069605},
			{0.036285,-0.050853,0.122839,0.044997,-0.172500,0.105930,0.002088,-0.012704,-0.114058,0.036628,0.084515,0.069319,0.006631,0.006725,0.192182,-0.104426,-0.078537,-0.088748,-0.008087,0.036819,0.010822,-0.025354,0.099400,0.055083,0.086705,0.040419,0.140552,-0.341726,-0.014228,-0.092483,-0.091646,-0.138372,0.037875,0.031692,-0.026902,0.002428,0.045141,-0.070908,0.274619,0.125513,0.003084,0.155114,-0.077905,0.166823,-0.082553,-0.057063,-0.007077,-0.076568,-0.017658,0.041319,0.115204,-0.054819},
			{-0.012104,-0.122183,-0.058231,0.117181,-0.091419,-0.046692,-0.041318,0.036101,-0.146914,0.122814,0.082706,-0.153270,-0.016191,0.142425,-0.016436,-0.155171,-0.043736,0.113677,0.019498,-0.089033,-0.068900,-0.013276,-0.079481,0.154641,-0.066160,-0.075699,0.099300,-0.247359,0.000477,0.089469,-0.034674,-0.049114,0.089844,-0.006806,-0.056606,0.027856,-0.036017,-0.096576,0.150682,0.007792,0.011896,0.093616,-0.019490,0.179504,-0.018330,0.053474,-0.056029,0.010319,0.006810,0.059214,0.172892,-0.014436},
			{0.014655,-0.132815,-0.105005,-0.027448,-0.011314,-0.151365,0.000257,0.022109,0.090688,0.068925,0.052575,-0.152412,-0.036768,-0.016006,-0.039367,-0.144179,-0.024491,0.217683,0.056795,-0.058651,0.002140,0.086089,-0.118787,0.184658,-0.081879,0.015479,0.042569,0.073676,0.019558,0.200483,0.009676,0.028476,0.002028,-0.013633,0.074511,-0.142101,-0.002905,0.006199,-0.016608,-0.085336,0.096291,-0.019640,-0.076661,0.122090,-0.028380,-0.011116,0.045028,0.031885,-0.103804,0.019877,-0.081403,0.115429},
			{-0.099915,-0.082985,-0.101839,-0.153070,0.044453,-0.109165,0.036092,0.038106,0.135562,-0.083344,0.092810,0.043203,-0.099524,-0.087468,-0.097678,-0.075281,0.068288,0.166139,0.080625,-0.032217,-0.069121,0.056854,-0.057738,0.072667,-0.068504,-0.074302,0.031125,0.086554,0.013718,0.195038,0.074190,0.082212,-0.122823,-0.049589,-0.019560,-0.134513,0.032614,-0.144034,-0.181928,-0.112593,0.041313,-0.165908,0.032701,0.082265,-0.004689,-0.034777,0.148143,0.025798,-0.020486,-0.063591,-0.153837,0.053968},
			{-0.069589,0.015996,-0.004601,-0.038894,-0.017950,0.100240,0.029037,-0.103723,0.028890,0.044632,0.015279,0.076075,-0.074881,0.077925,-0.108358,-0.025409,0.067270,0.018912,-0.039564,0.049827,-0.042191,-0.066768,0.134153,-0.039951,-0.043853,-0.015332,0.018497,0.069265,0.094627,-0.059387,0.147326,0.109884,-0.066881,-0.084761,0.039757,-0.114025,-0.092702,0.007061,-0.184299,-0.037809,0.048874,-0.097138,-0.051270,-0.053099,-0.071005,0.046309,0.001204,-0.027257,-0.060403,-0.083694,-0.026467,0.097218},
			{0.005515,0.199823,0.085416,-0.069610,0.077121,0.178494,-0.033454,-0.050332,-0.078657,0.004887,-0.059957,0.123626,-0.010186,0.127789,0.002352,0.068319,0.045165,-0.046840,0.045585,0.046508,-0.002876,-0.027706,0.019906,-0.183459,-0.019178,0.017056,-0.145484,0.023195,0.085670,-0.077016,-0.033027,0.034492,0.025877,-0.110462,0.054437,-0.071557,-0.073221,0.159240,-0.043676,-0.112848,0.005532,-0.073930,-0.061829,-0.093657,0.023025,-0.031692,0.033259,-0.023903,0.010224,0.082506,0.114754,0.094175},
			{0.049193,0.094534,0.000088,0.171854,-0.069649,0.010699,-0.171372,-0.078375,-0.213657,0.014707,-0.136942,-0.010167,0.087082,0.175528,-0.020898,0.179944,0.011503,0.054038,0.017792,0.024292,0.032017,0.078755,0.050777,-0.206784,-0.052369,-0.018673,-0.191762,-0.086892,0.047639,-0.010047,-0.049520,0.008679,0.047204,-0.003422,-0.184820,-0.027295,0.052297,0.184347,0.106771,0.016659,0.030649,0.014761,-0.067468,-0.166254,0.099622,0.010397,-0.096182,0.004431,-0.043539,0.201396,0.262928,-0.015199},
			{0.073227,-0.028392,0.030595,0.151473,-0.079229,-0.141695,-0.094110,0.015525,-0.161621,-0.089391,-0.154656,-0.220319,0.041719,-0.023081,0.047635,0.030521,-0.001516,-0.030015,-0.002909,-0.009127,-0.075582,0.030442,-0.120392,0.007371,-0.053994,0.068093,-0.075015,-0.158805,-0.067374,0.108966,-0.063197,-0.107075,-0.068183,-0.052709,-0.037562,0.194794,-0.003071,0.087210,0.096750,0.026483,0.065704,0.029592,0.103160,0.024842,0.113224,-0.094434,-0.118337,0.080862,-0.048353,0.091240,0.117674,-0.084297},
			{-0.005416,0.015388,-0.044271,0.023369,0.004530,-0.167304,0.050086,0.071038,0.041105,-0.145227,-0.027402,-0.063006,0.127789,-0.097306,0.071334,-0.048300,0.072174,0.045552,-0.083772,-0.024485,0.046384,-0.050659,-0.162800,0.013983,0.126942,0.043049,-0.085200,-0.002066,0.002952,0.173776,-0.085528,-0.031652,-0.085344,0.014719,0.090436,0.149894,-0.006941,0.018967,0.080335,0.006203,-0.032779,-0.074703,0.038193,0.118110,-0.087612,-0.014802,-0.080770,-0.014257,0.031975,0.011846,-0.046655,-0.114259},
			{0.084813,-0.041284,0.091609,-0.104153,0.109844,-0.059468,-0.001247,0.021365,0.149614,-0.074471,0.134007,0.001568,0.064412,-0.125933,0.014628,-0.128732,0.069951,-0.159901,-0.043950,0.008535,-0.007331,-0.023879,-0.000160,0.055021,0.013277,0.020538,-0.025533,0.080324,0.035663,-0.012244,-0.029964,0.037722,-0.033075,0.077911,0.103469,0.115979,0.108027,-0.102618,-0.099376,0.045440,-0.066082,-0.042747,0.121787,0.138950,-0.076454,-0.099783,0.122147,-0.073543,0.127635,-0.103835,-0.165514,-0.085690},
			{0.018900,-0.104229,0.120256,-0.084952,-0.007525,0.207121,0.088876,-0.063515,0.086372,0.027117,0.093472,0.040790,-0.026379,0.138733,-0.078948,-0.083121,-0.012377,-0.094956,-0.014209,0.074089,0.020534,-0.022903,0.051770,0.065098,0.028110,0.071951,0.154531,0.113838,-0.012345,-0.207652,0.013869,-0.070342,0.048442,-0.007797,0.051489,0.064141,-0.002520,-0.130431,-0.117434,-0.006752,-0.064447,0.010825,-0.024282,0.140195,-0.086942,-0.092253,0.105366,-0.049607,-0.064165,-0.181877,-0.086042,0.054548},
			{-0.025923,0.016585,0.166572,0.045322,-0.136616,0.244777,0.087250,-0.275747,-0.007966,0.173174,0.008931,-0.065785,-0.088672,0.080171,0.012997,-0.058879,0.054378,-0.153169,-0.006874,-0.032992,-0.093367,-0.017823,0.160005,-0.065088,0.012553,0.074046,0.142908,0.169231,-0.014441,-0.337065,-0.010406,0.110766,0.070409,-0.027024,0.054752,-0.040979,0.093307,-0.111958,-0.085390,-0.115570,-0.027983,0.156692,-0.216404,-0.021345,-0.054774,0.097057,-0.035815,-0.082706,-0.076009,-0.017124,0.124629,0.101212},
			{0.018728,0.127290,0.068339,0.158838,-0.104496,0.162617,-0.019659,-0.081473,-0.232561,0.167084,-0.035710,0.018531,-0.045030,0.028224,-0.050337,0.094066,0.008881,0.024699,-0.051210,-0.144206,-0.071151,-0.072299,0.104425,-0.037762,-0.062980,0.006657,0.108063,-0.069867,-0.074521,-0.092597,0.026669,0.071879,0.134714,0.067554,-0.051309,-0.031861,0.058474,0.020140,0.077715,-0.145403,0.028650,0.076302,-0.118399,-0.052924,-0.043217,0.081518,-0.093274,0.001071,-0.120989,0.101642,0.091581,0.077882},
			{-0.108374,0.060164,-0.064606,0.015298,0.088641,-0.180149,-0.011167,0.099351,-0.043209,0.093069,-0.132343,-0.059304,-0.046747,-0.143366,0.025299,0.115537,0.017389,0.167395,0.073451,-0.093206,-0.057904,-0.019422,-0.155393,-0.110550,-0.063796,-0.019548,0.123434,-0.162494,-0.086796,0.184565,0.033727,0.059929,-0.047175,0.150010,-0.111231,-0.101992,0.030893,0.138008,0.192082,-0.032071,0.010383,-0.007826,-0.102437,-0.095161,-0.026803,0.067879,-0.011402,-0.023172,-0.111296,0.061586,0.019610,0.155780},
			{-0.064575,0.065062,-0.147184,0.079202,0.084009,-0.309203,-0.070166,0.181272,0.008257,0.068615,-0.105224,-0.028104,-0.067577,-0.105705,0.006074,0.069402,0.003138,0.065634,0.031874,-0.004942,-0.073461,0.046659,-0.101412,0.008268,-0.143533,0.057780,0.045131,-0.255632,-0.084413,0.144177,0.039119,0.065641,-0.029978,0.049140,-0.054902,-0.069622,-0.000486,0.141621,0.146115,-0.048843,0.074759,-0.075459,0.097868,-0.107514,0.043962,0.023439,-0.006927,0.010260,-0.004638,0.007646,0.025280,0.051299},
			{0.016531,-0.066350,-0.069100,-0.133937,0.090768,-0.084903,0.051724,-0.005834,0.149373,-0.128077,-0.090972,0.054906,0.009326,-0.059645,0.008333,-0.055498,0.118060,0.071241,0.052284,-0.044786,-0.052693,0.076985,-0.039741,0.063573,-0.036453,-0.038765,-0.097390,-0.023840,0.019112,0.101058,-0.001491,0.015389,-0.077654,0.023724,0.013125,-0.141195,0.022440,0.074051,0.211775,0.074462,-0.051683,-0.109942,0.165307,-0.050947,0.054301,-0.092982,0.055242,-0.094412,0.073413,-0.042790,-0.125713,-0.017242},
			{-0.031026,-0.219984,0.006833,-0.067562,0.054085,0.029237,-0.003993,0.045605,0.075058,-0.159426,-0.017386,0.105661,0.074665,0.124776,0.014246,0.009218,0.087308,0.061600,0.058772,-0.004242,0.104567,0.051328,0.009516,0.154360,-0.057589,0.032250,-0.102006,-0.016492,0.123448,0.053371,-0.015646,0.017950,-0.009550,-0.074057,0.071798,-0.110782,-0.021160,0.073240,0.009408,0.051001,0.003591,-0.053827,0.235235,0.020605,0.041566,-0.137116,0.076987,-0.093337,0.106740,0.003452,-0.098073,-0.006585},
			{0.055949,-0.152132,-0.043617,0.078162,-0.108649,0.219286,-0.049904,-0.173619,-0.043712,-0.077732,0.064937,0.095184,0.127253,0.095822,-0.049165,0.030438,-0.052164,-0.024899,-0.006865,0.013878,0.066272,-0.026883,0.233801,0.166132,-0.044127,-0.065201,-0.190027,0.129771,0.052319,-0.125637,0.044472,-0.049115,0.106923,-0.106812,-0.054451,0.032976,-0.037354,0.027174,-0.103328,0.095857,0.065105,0.088388,-0.002050,-0.032419,0.004898,-0.021841,-0.079522,-0.000223,0.070229,0.145252,0.032450,-0.088706},
			{0.009708,0.106918,-0.036422,0.043328,-0.123387,-0.001413,-0.083476,-0.008917,-0.174430,0.017954,0.097492,-0.001124,0.076808,0.005792,0.083582,0.048959,-0.059229,-0.005281,-0.055963,0.069092,0.014699,-0.009765,0.135198,-0.034060,0.021307,-0.025425,-0.153253,0.250865,0.026785,0.032817,0.068409,-0.068854,0.014932,0.014661,-0.135611,0.114478,-0.050295,-0.225405,-0.119521,-0.030833,0.013308,0.065803,0.058021,-0.094855,0.115294,0.038827,-0.055435,-0.009578,-0.090658,0.144011,0.104772,-0.148829},
			{-0.030457,0.096828,0.012118,0.044853,-0.056651,-0.080034,-0.142054,0.053697,-0.177512,0.045054,0.205225,-0.058432,0.026145,-0.123180,0.029749,-0.062525,-0.055264,-0.038419,0.003442,0.007169,0.002026,-0.033472,0.038428,-0.200441,0.036722,-0.044822,-0.131464,0.079046,-0.109805,0.085687,-0.014189,0.069674,-0.017204,-0.057035,-0.192340,0.119578,-0.006951,-0.107655,-0.119320,0.073807,-0.060927,0.048758,-0.097300,0.027332,0.093986,0.105074,-0.130056,-0.004993,-0.134280,0.181140,0.213798,-0.017385},
			{-0.004362,0.241168,0.083202,0.062128,0.125307,-0.024648,-0.017495,0.128213,-0.112266,0.149871,0.108197,-0.030922,-0.056910,-0.196525,0.000092,-0.068411,-0.003154,-0.025806,-0.035186,0.058956,-0.000968,0.012627,-0.104485,-0.218179,0.102981,0.095328,0.022849,-0.091584,0.011955,-0.018751,0.012163,0.073943,-0.095709,0.081624,-0.083549,0.163202,0.060528,-0.013172,0.069888,-0.074486,0.017204,-0.011595,-0.124273,0.060601,0.029789,0.132696,-0.028936,-0.062761,-0.063935,0.076303,0.067991,0.066289},
			{-0.052638,0.142897,0.041031,-0.102055,0.118664,0.129259,0.122609,0.078019,0.015798,0.010941,-0.036087,0.091295,-0.008532,-0.020700,-0.001588,-0.138707,-0.024676,-0.092898,-0.031330,-0.012641,0.018740,-0.076398,-0.124924,-0.111832,0.040266,0.039985,0.149925,-0.151292,0.003523,-0.062320,0.026518,0.030167,-0.067259,-0.025436,0.159087,0.102115,-0.019369,0.019540,0.148920,0.021950,-0.080298,-0.024894,-0.177155,0.088576,-0.086927,0.050165,0.133505,0.019274,0.029216,-0.089756,-0.093089,0.018530},
			{0.027087,-0.094389,0.084067,-0.029130,0.129553,0.323438,0.030617,0.005842,0.191296,0.059549,-0.177315,-0.000734,-0.048373,0.042865,0.025292,-0.045525,0.070978,-0.030097,-0.005532,0.001297,-0.074359,-0.003029,0.000226,0.110902,-0.021074,-0.053158,0.113596,-0.058869,-0.010372,-0.257319,0.043880,0.088261,-0.081199,0.037997,0.051920,0.016549,-0.043424,0.196948,0.133418,-0.109023,-0.059115,-0.031715,-0.017421,0.046185,-0.049342,-0.050508,0.096023,-0.048653,0.034335,-0.141615,-0.115594,-0.008621},
			{-0.062045,-0.134148,-0.148137,0.102170,-0.102097,-0.022971,-0.001979,-0.087660,-0.098836,-0.040016,-0.088804,-0.207577,-0.011260,0.083079,0.084158,0.158824,-0.005195,0.062912,0.045716,-0.112025,-0.075949,0.044993,0.149089,0.165147,-0.055515,-0.069056,0.211164,0.168655,0.035606,-0.013691,-0.025365,0.017699,0.073722,0.030853,-0.066704,-0.194015,0.029532,0.129158,-0.126681,-0.094057,0.073047,0.113754,0.084531,-0.087191,0.088087,-0.111245,-0.112612,0.014808,0.024291,0.056190,0.065529,0.055458},
			{0.029600,-0.097367,-0.138381,-0.014330,0.016773,-0.212374,-0.117343,-0.062555,-0.182643,-0.107811,0.040348,-0.096399,-0.072223,-0.186574,0.034707,0.017119,0.047358,0.089979,-0.011685,-0.075790,-0.062550,0.057700,0.059383,0.006732,-0.097106,0.022084,0.000824,0.196299,-0.042726,0.206725,-0.068828,0.008268,-0.037529,0.045501,-0.080990,-0.100078,-0.033988,0.023396,-0.235235,0.057323,0.109826,0.056569,0.173272,0.017566,-0.033405,0.065597,0.066175,0.124136,-0.037223,0.137474,0.174703,-0.073569},
			{-0.042183,0.112216,-0.082557,-0.072373,0.076539,-0.336358,-0.054580,-0.010528,-0.110219,-0.075048,0.157635,0.038122,0.100147,-0.065493,-0.037054,-0.091625,0.059555,0.013225,0.029257,-0.013814,0.027654,0.027552,-0.000453,-0.130717,-0.095414,-0.017578,-0.068467,0.152580,0.099671,0.284154,0.002521,-0.018682,0.008069,-0.018188,0.002786,-0.228333,-0.029109,-0.092337,-0.072089,0.008282,0.050586,-0.106428,0.077146,0.143601,0.096522,-0.028702,0.122211,-0.005236,-0.002204,0.087867,0.135825,-0.068522},
			{-0.056030,0.232938,0.036131,0.044985,0.060289,-0.112595,-0.110752,0.023882,-0.001592,0.014820,-0.068185,0.168000,0.107987,-0.033924,-0.168948,-0.218381,0.038551,0.119785,-0.047713,0.066290,0.031616,0.042379,-0.019245,-0.202731,-0.052904,-0.041187,-0.092602,-0.042772,0.023366,0.054726,0.202183,-0.045231,0.091287,-0.017515,-0.067492,-0.173787,-0.051489,0.029149,0.063969,-0.040956,0.034635,-0.064407,-0.126590,0.204703,0.054911,0.056750,0.043058,0.054172,-0.074144,0.145720,-0.052972,-0.059970},
			{0.025441,0.093036,0.045438,0.009774,-0.003788,0.071901,-0.108401,-0.007067,0.159417,0.037222,-0.093783,0.017347,0.073431,0.167771,-0.089109,-0.050500,0.001724,-0.078567,-0.023869,0.044046,0.078507,-0.020583,-0.099123,-0.040819,0.062719,-0.028317,-0.186010,-0.168151,0.003407,-0.079431,0.145689,-0.067444,-0.038462,-0.094728,0.033127,-0.002371,-0.021397,0.047643,0.151288,0.116077,-0.066188,0.005172,-0.082244,0.099525,0.046202,0.009902,-0.099203,0.012480,0.008693,0.039752,-0.142569,-0.193142},
			{0.024168,-0.065114,-0.005890,0.084401,-0.108792,-0.020307,0.027101,0.037733,0.191096,0.010858,-0.017612,-0.024490,0.114801,0.092032,-0.023523,0.147718,-0.012603,-0.011297,-0.118334,0.095003,0.089981,-0.035553,-0.073686,0.058181,0.005180,0.051820,-0.171168,-0.124584,0.048097,-0.028682,0.032011,-0.043741,-0.013410,0.053878,0.085096,0.247646,-0.057654,-0.014615,0.144596,-0.007957,0.026599,0.066387,-0.018863,-0.187216,0.011450,-0.023701,-0.005090,-0.011494,-0.062295,-0.138727,-0.247618,-0.078795},
			{0.036555,-0.111292,0.047205,0.192974,-0.077252,0.056662,0.053499,0.021282,0.046934,0.039696,0.006124,0.032513,-0.009961,-0.011286,0.055801,0.263769,-0.098030,-0.056666,-0.079476,-0.071092,-0.049279,0.018750,0.006232,0.067796,0.105812,0.027234,-0.017759,0.001566,-0.026989,-0.022582,-0.060849,0.019134,0.085144,0.042206,0.052285,0.063282,0.090525,-0.043697,-0.017148,-0.073773,-0.033111,0.098378,-0.001531,-0.231848,0.023536,-0.021459,-0.104085,-0.012643,0.053304,0.006894,-0.063879,-0.021676},
			{-0.001848,-0.063830,-0.007161,0.018638,0.072001,-0.096679,-0.001331,-0.002596,-0.002280,-0.117687,0.189867,-0.132903,-0.036799,-0.116737,0.260077,0.111382,-0.018369,-0.110045,-0.068678,0.052610,0.021630,0.033784,-0.089506,0.169563,0.001275,0.011234,-0.048288,0.082677,-0.075053,-0.024010,-0.166064,0.097859,-0.079235,0.000595,0.139932,0.199074,0.013752,-0.119928,0.022972,-0.084427,-0.027230,0.010673,0.091897,-0.095668,-0.040579,0.034433,0.011588,0.040142,-0.017791,-0.128476,0.122995,0.151679},
			{0.014594,0.022223,0.104338,-0.018672,0.041786,0.058287,0.089410,-0.050369,-0.187445,-0.139497,0.154168,-0.013273,-0.067760,-0.030472,0.172644,-0.060685,0.023848,-0.119455,0.043667,0.024510,-0.033326,-0.012533,0.037764,0.030815,0.015422,0.054797,0.058077,0.046646,0.019188,-0.000967,-0.077026,0.059012,-0.097261,-0.001466,0.017427,0.062136,-0.072829,-0.143531,-0.034092,-0.060916,-0.062244,-0.097567,0.035694,0.047355,-0.070395,-0.036018,0.111430,-0.001793,0.033248,-0.095212,0.198831,0.060431},
			{0.037114,0.148139,0.122620,-0.106787,0.074523,0.143043,0.020285,-0.034344,-0.174076,-0.130149,0.012319,-0.014948,-0.049967,0.044710,-0.040563,-0.206095,-0.028294,-0.087352,-0.031052,0.015760,0.004752,-0.002958,0.015816,-0.139327,0.048319,-0.031821,0.178098,0.033091,0.079242,-0.149838,-0.013228,0.092654,-0.042512,-0.132184,-0.007666,-0.042202,0.013636,-0.073776,-0.028835,-0.074852,-0.111676,-0.062226,0.157169,0.253285,-0.056293,0.016777,0.112494,0.067161,0.071089,0.014305,0.155202,0.009981},
			{-0.005500,0.134999,-0.015696,-0.078609,-0.028942,0.087938,0.048019,-0.121063,0.051817,-0.068831,-0.100123,-0.019358,0.057695,0.090878,-0.095655,-0.214576,0.006446,-0.007500,-0.047971,-0.033737,-0.107630,0.040577,0.077821,-0.157640,0.029689,-0.016185,0.166169,-0.045528,-0.012570,-0.111284,0.092437,-0.053051,0.028388,-0.008919,-0.042367,0.002528,-0.100333,0.081631,0.050585,0.052269,-0.024197,-0.065604,0.054282,0.223475,-0.030120,-0.020082,-0.043249,-0.020846,0.010136,0.003255,-0.037344,-0.007709},
			{0.089894,0.023077,-0.124265,0.046987,-0.140140,0.065916,0.069635,-0.092776,0.189418,0.120578,-0.216106,-0.119663,0.099238,0.024579,-0.067955,-0.023948,-0.087466,0.076435,-0.043184,-0.029593,-0.039880,0.095687,0.068384,0.063468,-0.052634,-0.016611,0.061450,0.024265,-0.053842,-0.077298,0.174089,-0.140471,0.132939,0.021728,-0.068765,-0.018615,0.086362,0.112373,0.074594,0.115343,0.078405,0.131913,-0.021873,-0.018973,0.008250,-0.039639,-0.005398,-0.018266,0.026480,0.140100,-0.106325,-0.119701},
			{-0.031865,-0.084667,-0.095606,0.018085,-0.070983,-0.162093,-0.025834,0.043036,0.174058,0.082151,-0.067619,-0.038676,0.060145,-0.106997,0.052978,0.191783,-0.049959,0.125062,-0.007612,-0.082817,-0.076630,0.024327,-0.064474,0.078893,-0.136285,-0.012706,0.041068,0.056893,-0.174067,0.206388,0.015780,-0.125185,0.086301,0.061225,-0.140786,-0.123987,-0.020250,0.149344,-0.142758,0.073392,0.032224,0.077957,-0.148426,-0.133735,0.025716,0.042124,-0.015568,-0.028135,-0.029709,0.039805,-0.197002,-0.099705},
			{-0.084687,-0.100283,-0.041460,-0.027593,0.027409,-0.228292,0.003310,0.068564,0.103858,0.069236,0.076961,0.047207,0.085279,-0.070851,0.065657,0.171724,0.045735,0.077003,0.017640,-0.070671,-0.036761,0.084826,-0.155109,0.124789,-0.049084,-0.078690,-0.034757,-0.008311,-0.001284,0.155332,-0.073889,0.027197,0.033183,0.024969,0.035495,-0.030677,-0.067780,-0.030222,-0.062740,0.058774,0.049829,0.001498,-0.141029,-0.132142,0.075797,0.043058,-0.032369,-0.021482,-0.061603,-0.020654,-0.027823,-0.071714},
			{0.056204,-0.010463,-0.106242,-0.019838,0.070693,-0.139327,0.002373,-0.011057,-0.112571,0.108386,0.053905,0.124269,0.006730,0.061570,0.091628,0.048960,0.051741,0.001238,-0.046089,0.054116,0.070008,0.016288,-0.089926,0.101879,0.004785,0.029893,-0.141657,-0.022311,0.025878,0.085871,-0.036715,0.005687,0.036174,-0.188221,0.041914,-0.297329,-0.118613,-0.173079,0.036645,-0.102756,0.042408,-0.110459,0.014096,-0.063650,0.041998,-0.030530,-0.038950,0.111824,-0.024859,-0.053838,0.033492,0.061228},
			{-0.072889,0.099728,0.019747,-0.092305,0.100857,0.035507,0.002371,-0.016400,-0.187372,-0.036321,0.190859,-0.027459,0.064637,0.111689,-0.067101,0.046440,0.087431,-0.053462,-0.096744,0.090642,0.080291,-0.094319,0.002034,-0.051161,-0.012763,-0.046061,-0.149704,-0.082528,0.189286,-0.048599,0.034885,0.022989,-0.076634,-0.211285,0.075911,-0.116448,0.007081,-0.085326,0.062644,-0.065530,-0.025762,-0.172591,0.083376,-0.050817,0.124814,0.063987,-0.025831,0.054522,0.028001,-0.016096,0.176543,0.004321},
			{0.075338,0.108230,0.034800,-0.077291,-0.077833,0.088180,-0.007400,-0.107972,-0.058152,-0.187419,0.076054,-0.001563,0.059523,0.151165,-0.255162,-0.047657,0.017018,-0.083318,-0.040648,0.099105,0.039830,-0.030541,0.088949,-0.135900,0.042384,-0.047332,-0.207273,-0.033529,0.044448,-0.062531,0.211415,0.070390,-0.005977,-0.082395,0.118790,0.025693,0.014357,-0.030161,-0.002511,-0.082255,-0.017224,0.091575,0.143938,0.037041,0.097172,0.084772,0.001920,-0.054936,-0.016736,-0.147643,0.084944,-0.046684},
			{0.039687,0.052157,0.093267,0.018548,-0.115073,0.145781,0.093809,-0.113056,0.075836,-0.150071,-0.058969,-0.091317,0.003566,-0.071973,-0.168348,-0.136079,-0.041059,-0.082504,-0.060225,0.018627,0.030507,0.002588,0.077725,-0.079960,0.066982,0.037000,-0.072979,-0.056871,-0.055589,-0.144657,0.113845,0.010407,0.061926,-0.029996,0.051443,0.232295,-0.027111,0.054839,-0.049456,-0.011338,-0.035401,0.192398,0.205262,0.151128,-0.017487,-0.026528,-0.073572,-0.012986,-0.034535,-0.029020,-0.017543,0.021851},
			{0.044116,0.011653,0.008130,0.126096,-0.118667,0.111392,-0.083853,-0.002004,0.063812,0.014325,-0.086736,-0.055184,-0.043570,-0.029254,0.085406,-0.025074,-0.039936,0.005442,-0.049408,0.052536,0.015805,-0.113140,0.041016,0.043820,0.062703,-0.079623,0.031992,0.060402,-0.089983,0.006525,-0.082214,0.124900,0.068782,0.076483,-0.205601,0.164045,0.088683,0.035526,-0.135627,-0.028803,0.018093,0.150749,0.052537,0.169483,-0.014658,0.009492,0.016737,0.028728,0.009088,0.213575,-0.032990,0.106132},
			{-0.017848,-0.131180,0.052366,-0.012584,-0.007484,-0.049147,0.008191,0.036635,0.107145,0.165922,-0.037124,0.087602,-0.100537,-0.162757,0.104346,-0.031049,-0.009506,-0.128797,-0.071497,0.009018,0.063018,0.000518,-0.021680,0.027409,0.000104,0.000423,0.026006,0.031589,-0.169414,0.013618,-0.095721,0.114001,-0.046939,0.115519,0.005313,0.113230,-0.001550,0.044018,-0.031067,-0.118680,-0.001877,0.020037,-0.151043,-0.027332,-0.018986,-0.057157,-0.006833,-0.018115,0.041726,0.071090,-0.144365,0.037722},
			{-0.081009,-0.126483,0.062807,-0.002904,0.096252,-0.016143,-0.009241,0.035429,-0.002582,0.279547,-0.007388,0.056892,-0.065513,0.132358,0.191025,-0.071688,-0.044943,-0.096033,0.022062,0.017596,0.057420,0.003565,-0.086412,0.171557,0.040474,0.002483,0.074292,0.068824,0.044305,-0.096302,-0.172400,-0.001473,-0.079519,-0.009082,-0.099192,-0.118914,0.024550,0.094585,-0.029604,0.033845,-0.078735,-0.105170,-0.183347,0.138350,-0.019359,-0.094887,-0.048593,0.007932,0.110434,0.034309,0.011781,-0.003220},
			{-0.024908,0.001773,-0.021903,-0.077002,0.263629,0.083805,0.008802,0.112580,-0.099800,0.168484,0.048592,-0.024976,0.052362,0.114106,-0.042214,0.082325,0.074853,0.060739,-0.062463,-0.073509,0.000129,-0.051855,-0.072480,-0.076774,-0.011013,-0.000436,0.071496,0.047721,0.082968,-0.093829,-0.002647,0.018754,-0.114302,-0.098233,0.147811,0.008131,0.038235,-0.013221,-0.005930,0.113033,-0.031027,-0.311788,-0.184896,-0.079570,0.011827,-0.063962,0.115092,-0.021499,0.110471,-0.043797,0.154141,-0.037267},
			{0.045009,0.031547,-0.095907,0.013571,0.133410,0.123053,0.096544,0.005563,-0.049283,0.022624,0.020686,-0.191258,0.026525,0.173661,-0.196679,0.156728,-0.004869,0.044862,0.023466,-0.067438,-0.109091,0.075596,0.074959,-0.095600,-0.056136,-0.027535,0.104702,-0.030296,-0.011004,-0.031622,0.165291,-0.105896,-0.022062,-0.009399,0.093617,0.013629,-0.000704,0.031542,0.011445,0.177017,0.020340,0.006216,0.021872,-0.176771,0.009414,-0.067306,-0.063104,-0.037721,0.056904,-0.126386,0.149033,-0.115976},
			{0.060682,0.019552,-0.102528,0.011965,-0.104793,-0.020073,0.027982,-0.044345,-0.099713,-0.192163,0.030519,-0.170878,0.090274,-0.164681,-0.117367,0.257778,-0.087417,0.143443,0.061992,-0.119524,-0.184897,0.048514,0.046940,-0.124989,-0.175928,-0.037880,0.126870,0.029815,-0.002614,0.096811,0.102928,-0.155483,0.143726,0.105082,0.107960,-0.138061,-0.009907,0.007393,-0.066494,0.245631,0.051977,0.117517,0.233816,-0.196426,0.019246,-0.003786,0.021799,0.001556,-0.016195,-0.049606,0.045507,-0.140594},
			{-0.043267,0.042803,-0.089152,-0.031623,-0.287767,-0.218964,-0.009788,0.004464,0.087750,-0.342516,0.026927,0.205198,0.034542,-0.150386,-0.024411,0.110580,-0.060758,0.037039,0.034007,-0.175554,0.032673,0.045136,0.063893,-0.105839,-0.092616,0.006286,0.035676,-0.001078,-0.173488,0.178163,0.112307,-0.001501,0.121085,0.240628,-0.021694,-0.035604,-0.051782,-0.001202,0.026761,0.080712,0.071654,0.126380,0.138291,-0.152330,0.049643,0.061128,0.107259,0.023487,-0.056142,0.060337,-0.062234,-0.108418},
			{-0.101867,-0.116108,-0.038691,-0.042295,-0.264035,-0.161660,-0.068075,-0.055373,0.090619,-0.119997,0.054166,0.402526,-0.090463,-0.099502,0.129420,-0.088056,0.011140,0.019320,0.005547,0.001486,0.019571,0.060662,0.111221,0.002608,-0.139107,-0.067535,-0.094187,-0.046129,0.008209,0.193646,-0.205784,0.033931,0.228340,0.054694,-0.003730,-0.163390,-0.045502,-0.107937,0.060238,-0.160447,0.007455,0.225485,0.157305,0.066179,0.060467,0.075144,0.005888,-0.055206,-0.113203,0.031868,-0.148155,0.090764},
	};
	dataType l1bias[]={-0.257672,0.010955,-0.427076,-0.674760,-0.003050,-0.354949,-0.017629,0.044782,-0.011473,-0.010642,0.064564,0.813054,0.017445,0.548345,0.006756,-0.053699,-0.026147,-0.482557,-0.117330,-0.258870,-0.320991,-0.429637,-0.045513,-0.010844,-0.220136,-0.071144,0.113705,-0.008028,-0.297397,0.305242,-0.006648,-0.020427,-0.002411,-0.319708,-0.032194,0.456231,-0.209027,-0.064414,0.007566,0.026169,-0.254766,0.005862,0.010840,0.055728,-0.173064,0.031788,-0.667923,-0.426306,-0.031856,0.035470,0.011146,-0.023091,};
	dataType l2weights[52][104]={
			{0.002600,0.007330,0.003316,0.001247,-0.006744,-0.003867,-0.012359,-0.002097,-0.002654,-0.000439,0.005940,0.010639,0.002032,-0.001506,-0.008368,0.001505,0.002099,0.001263,0.000873,-0.010255,-0.000738,-0.001632,0.000748,0.010285,0.001158,-0.002933,-0.019054,-0.003323,0.004413,0.012810,0.012391,-0.000219,0.003778,-0.000342,-0.004409,0.003218,-0.001215,-0.001811,0.005808,0.003826,0.003410,-0.002027,-0.007861,0.000804,0.013497,0.011991,-0.006750,-0.019370,-0.020029,-0.001187,0.021958,0.023994,0.018753,0.006569,0.001067,-0.009587,-0.005575,-0.004697,0.002117,0.001680,0.008169,0.007205,0.011000,0.001649,-0.006043,-0.005095,-0.003905,0.006795,0.003293,0.004675,-0.005586,0.000134,0.001716,0.010794,0.001528,-0.005721,-0.010893,-0.008983,0.004637,0.006877,0.005606,-0.001625,-0.004788,-0.005812,-0.003113,-0.003219,-0.000308,0.000209,0.004982,-0.008725,-0.003927,-0.000475,-0.007239,-0.008272,0.002651,0.005405,0.001156,-0.012168,-0.013238,-0.007575,0.014006,0.029406,0.013872,-0.007960},
			{-0.082842,0.036074,0.122295,0.107854,0.039993,-0.049112,-0.105131,-0.091432,-0.017287,0.052248,0.085581,0.049561,-0.008589,-0.075312,-0.087861,-0.039026,0.027081,0.101891,0.101748,0.022463,-0.066484,-0.141775,-0.112812,-0.011690,0.108431,0.149199,-0.043825,-0.102766,-0.093987,-0.004782,0.080261,0.070748,0.017964,-0.048668,-0.066477,-0.012709,0.029876,0.053849,0.044822,-0.005814,-0.041441,-0.034942,-0.022281,0.020178,0.029281,0.024226,-0.018322,-0.047069,-0.021820,0.017278,0.054667,0.054629,0.120732,0.133247,0.055205,-0.038281,-0.109480,-0.103766,-0.036802,0.046412,0.099043,0.060386,0.004216,-0.052168,-0.079908,-0.055863,0.015794,0.082748,0.091626,0.047282,-0.049913,-0.112455,-0.105016,-0.010386,0.090760,0.136052,0.092906,-0.027881,-0.117499,-0.047443,0.055944,0.090409,0.050224,-0.012572,-0.065430,-0.055804,0.011980,0.067892,0.051281,-0.005628,-0.042338,-0.057453,-0.016742,0.009239,0.044139,0.026486,0.007820,-0.043136,-0.020704,0.013340,0.034237,0.046684,0.027381,-0.026273},
			{-0.000167,0.001295,0.002670,0.001265,0.000567,0.000479,-0.003128,-0.004899,-0.004915,-0.001191,0.004040,0.006953,0.006305,-0.001264,-0.005642,-0.005725,-0.002981,0.003857,0.005708,0.001670,-0.001732,-0.004293,-0.001412,0.001567,0.001221,-0.000118,-0.003720,-0.000401,0.003012,0.002191,0.002312,-0.001259,-0.002703,-0.001542,-0.000274,0.000095,0.000809,0.001442,0.001554,0.004136,0.002089,-0.002081,-0.005174,-0.005989,-0.002910,0.002266,0.005114,0.003443,0.001467,-0.003086,-0.002910,-0.001233,0.003506,0.000846,-0.001040,0.000737,-0.002726,-0.003061,-0.003731,-0.001861,0.003765,0.007302,0.006488,0.001514,-0.005000,-0.006725,-0.005114,0.002786,0.005047,0.004851,0.001265,-0.004794,-0.004461,0.000210,0.000700,0.002054,-0.001835,-0.004112,0.001136,0.002876,0.002246,-0.001003,-0.003058,-0.002406,-0.001467,0.001184,0.002709,0.002153,0.001412,0.002044,-0.000422,-0.001347,-0.002875,-0.005828,-0.002654,0.002998,0.006635,0.004542,0.001863,-0.002074,-0.005418,-0.002517,0.000561,0.002694},
			{0.008488,-0.011358,-0.009922,-0.013763,-0.018889,0.009572,0.013170,0.012768,0.017303,-0.000312,-0.018125,-0.012569,-0.009944,-0.003172,0.003985,0.002529,0.010285,0.010860,0.011216,-0.005305,-0.015603,-0.015081,0.000669,-0.004792,0.014603,0.012568,0.004967,-0.008835,-0.010458,-0.006315,-0.003337,-0.001012,0.008123,0.007714,0.006545,0.018498,-0.013235,-0.011342,-0.015620,-0.018800,0.003362,0.013631,0.015489,0.013281,0.006296,-0.008298,-0.013087,-0.011386,-0.007786,-0.001381,0.008086,0.011130,-0.009549,-0.013263,-0.022805,0.013549,0.009255,0.012695,0.017244,-0.013800,-0.012375,-0.011186,-0.009876,0.001505,0.009776,0.009081,0.010621,0.008014,0.005095,-0.000622,-0.008786,-0.011793,-0.001365,0.008708,0.010080,0.014504,0.010023,0.002176,-0.014191,-0.005813,-0.004625,-0.000577,0.008262,0.007959,0.004221,0.011989,-0.004357,-0.006021,-0.011888,-0.022304,0.009164,0.017636,0.019251,0.013775,0.003771,-0.010624,-0.012609,-0.013562,-0.007712,0.008696,0.011282,0.006390,0.015798,0.015971},
			{0.054592,0.147513,0.140537,0.075576,-0.037203,-0.085487,-0.096199,-0.024901,0.004944,-0.006970,-0.006314,0.031447,0.058239,0.098019,0.024289,-0.045471,-0.108682,-0.096588,0.008087,0.077256,0.106059,0.036444,-0.045889,-0.046540,-0.020051,0.021500,-0.014019,-0.042281,-0.000007,0.065654,0.061964,0.018817,-0.060396,-0.091734,-0.048380,0.043447,0.108499,0.060989,-0.017767,-0.076241,-0.035345,0.045095,0.088437,0.013688,-0.069871,-0.139060,-0.068422,0.082113,0.175850,0.186861,0.043827,-0.124981,0.190028,0.092166,-0.035371,-0.142479,-0.112303,-0.049735,0.037081,0.048015,0.030592,0.025185,0.044234,0.053611,0.021913,-0.030246,-0.108563,-0.091367,-0.017258,0.084280,0.100217,0.064756,-0.029417,-0.096968,-0.063237,-0.008832,0.043478,0.039803,-0.027584,0.000989,0.046143,0.037252,-0.031653,-0.079653,-0.062123,0.011074,0.095998,0.081293,0.018756,-0.087335,-0.089514,-0.020914,0.047476,0.060165,-0.015276,-0.099347,-0.090841,0.030937,0.133457,0.150636,0.047768,-0.098680,-0.214961,-0.174666},
			{-0.060848,-0.042828,0.015982,0.056510,0.064343,0.001925,-0.022294,-0.033473,0.004897,0.037797,0.028460,-0.017281,-0.056276,-0.033723,0.018169,0.057724,0.049163,0.017650,-0.016007,-0.026736,0.000688,0.017246,0.009531,-0.019506,-0.026689,-0.004126,0.053622,0.034375,-0.006139,-0.027871,-0.033538,-0.000463,0.004763,-0.008478,-0.019893,-0.000279,0.025136,0.044119,0.029872,-0.009419,-0.041768,-0.041965,-0.000299,0.023590,0.011057,-0.004495,-0.013196,0.012482,0.021183,0.030536,0.001640,-0.026266,-0.010231,0.062083,0.071753,0.025339,-0.026551,-0.054630,-0.032666,0.022943,0.034745,0.005672,-0.033826,-0.044915,-0.005578,0.048190,0.065709,0.026356,-0.026052,-0.054148,-0.030948,0.010353,0.015271,0.012552,-0.009833,-0.014240,0.015088,0.046672,0.005700,-0.027415,-0.042325,-0.025107,0.012358,0.008941,0.009452,-0.001362,0.009461,0.024384,0.023864,-0.004600,-0.027315,-0.049034,-0.020114,0.022752,0.028407,0.018920,-0.010765,-0.005464,-0.003090,0.018495,0.012449,-0.025651,-0.030266,-0.039234},
			{-0.036905,0.033674,0.008364,0.016133,-0.005097,0.011325,0.040303,0.050071,0.002413,-0.005398,-0.041175,-0.053307,-0.032073,-0.013150,0.044011,0.024166,0.009587,0.005120,-0.035038,0.042732,0.036943,0.002012,-0.071826,-0.069219,-0.032402,0.007002,0.080952,0.045769,0.008630,-0.023205,-0.047877,-0.037582,-0.057129,-0.011683,-0.016257,0.025328,0.042780,0.031458,-0.003622,-0.023952,-0.037120,0.023426,0.027123,0.031261,0.003625,-0.011241,-0.027576,-0.050995,-0.020686,0.027958,0.054889,0.081716,0.014075,0.064948,0.016907,-0.021631,-0.007436,-0.000629,0.024413,-0.001812,-0.040742,-0.072509,-0.051899,-0.021573,0.068617,0.048294,0.033825,-0.010239,-0.017137,-0.015135,0.029125,0.011814,-0.013815,-0.045359,-0.003668,0.018551,0.062793,0.079596,0.010653,-0.015610,-0.064933,-0.021423,-0.031835,0.001322,0.012802,0.034564,0.015806,0.026087,0.000206,-0.012252,-0.021521,-0.016113,0.017898,0.014639,0.003593,-0.039982,-0.057612,-0.026005,0.003532,0.022172,0.061135,0.049550,0.018378,-0.052337},
			{-0.003447,0.031799,0.008987,-0.035694,-0.002653,0.019062,0.096271,0.056876,-0.033246,-0.069100,-0.050603,0.012537,0.092506,0.066832,0.026347,-0.062910,-0.075253,0.000165,0.069996,0.082140,0.004555,-0.057721,-0.077718,-0.042698,0.049304,0.084739,-0.003341,-0.049803,-0.061315,-0.042763,0.003500,0.039515,0.025864,0.028384,0.047248,0.029664,-0.035290,-0.062939,-0.087137,-0.028767,0.035157,0.080852,0.080213,0.020125,-0.057007,-0.079949,-0.054336,-0.012078,0.020496,0.015502,0.033631,0.028947,-0.018607,-0.020690,-0.015322,0.015261,0.031959,0.045974,-0.018370,-0.052308,-0.067984,-0.028313,0.031097,0.086556,0.042428,-0.037311,-0.066529,-0.056514,0.013797,0.074410,0.060626,-0.034087,-0.092398,-0.045669,0.027709,0.083526,0.074898,0.003882,-0.053969,-0.017888,0.000403,0.031510,0.040621,0.016626,0.034110,0.008338,-0.027341,-0.037344,-0.068249,-0.009799,0.030182,0.079744,0.090548,0.018697,-0.060834,-0.071104,-0.057731,-0.007329,0.013694,0.048077,0.037519,0.014228,0.014005,-0.053129},
			{0.035584,0.094172,0.065344,-0.032588,-0.096899,-0.082305,-0.008862,0.077566,0.098368,0.020422,-0.058358,-0.089354,-0.043177,0.044858,0.065073,0.039068,-0.039990,-0.053685,-0.012855,0.025068,0.075692,0.017958,-0.053591,-0.077926,-0.036260,0.049458,0.069064,0.002000,-0.076837,-0.077507,-0.033381,0.039673,0.093784,0.072550,-0.001037,-0.056899,-0.091357,-0.051259,0.046478,0.092803,0.080633,0.009353,-0.079359,-0.095764,-0.035085,0.050779,0.085885,0.046986,-0.019011,-0.052912,-0.038308,0.006664,0.091805,0.025321,-0.075450,-0.102019,-0.032189,0.056206,0.103556,0.055222,-0.027147,-0.100125,-0.064301,0.021215,0.074070,0.059491,-0.008254,-0.050445,-0.051459,0.014881,0.049605,0.051963,-0.009944,-0.057252,-0.055495,-0.003450,0.077210,0.078836,-0.054557,-0.104202,-0.057447,0.016992,0.079049,0.094593,0.032880,-0.064271,-0.088953,-0.057737,0.014513,0.060098,0.089791,0.019974,-0.054142,-0.101037,-0.054660,0.013346,0.088233,0.062612,0.008447,-0.047205,-0.071643,-0.019065,0.043812,0.054458},
			{0.026943,-0.043525,-0.057821,-0.036720,-0.013541,0.006292,0.008599,0.012753,0.042332,0.056299,0.024167,-0.042162,-0.100360,-0.112539,-0.043774,0.051341,0.129993,0.122708,0.038521,-0.049686,-0.128506,-0.126166,-0.058312,0.022027,0.094170,0.121301,0.008525,-0.077969,-0.133073,-0.119564,-0.029835,0.064923,0.136239,0.123784,0.035557,-0.076500,-0.143056,-0.131880,-0.046062,0.068951,0.145772,0.139430,0.045565,-0.068103,-0.158039,-0.139196,-0.038463,0.087791,0.159604,0.112851,-0.010458,-0.112786,-0.068919,-0.060207,-0.014570,0.034372,0.032325,0.024294,0.020285,0.023375,0.010510,-0.024211,-0.070502,-0.093226,-0.036070,0.047223,0.122074,0.118798,0.049337,-0.067746,-0.128711,-0.123856,-0.047937,0.044781,0.108860,0.129968,0.069547,-0.012288,-0.135097,-0.100829,-0.016158,0.078533,0.139590,0.120180,0.021135,-0.070171,-0.143820,-0.128452,-0.040166,0.076498,0.149099,0.140772,0.049622,-0.063317,-0.147293,-0.143084,-0.046445,0.079077,0.169675,0.137424,0.023105,-0.109049,-0.149769,-0.073141},
			{-0.024979,-0.060394,-0.090612,-0.084612,-0.034147,0.044845,0.111960,0.135990,0.098069,-0.029028,-0.133570,-0.167797,-0.112993,0.027723,0.111737,0.143151,0.109546,0.047360,-0.041753,-0.139100,-0.129985,-0.087779,0.002606,0.102163,0.130617,0.105725,-0.050159,-0.076472,-0.050916,0.002392,-0.015754,-0.019695,-0.018277,0.016748,0.090948,0.120610,0.059521,-0.049677,-0.138041,-0.144672,-0.052101,0.068079,0.134886,0.105627,0.036202,-0.060263,-0.079518,-0.079801,-0.033906,0.000509,0.053066,0.055794,-0.065189,-0.038690,-0.018394,0.044504,0.098121,0.117352,0.073129,-0.033537,-0.126070,-0.158356,-0.095576,0.029716,0.133216,0.154254,0.108530,0.024597,-0.089595,-0.138369,-0.133648,-0.068809,0.039302,0.119232,0.135966,0.096046,0.031839,-0.069759,-0.070182,-0.028697,0.026437,0.028936,0.001359,0.020214,0.067099,0.068694,0.060176,-0.032184,-0.125783,-0.152622,-0.054054,0.068682,0.144758,0.129548,0.044465,-0.085026,-0.115320,-0.106979,-0.041410,0.046680,0.059557,0.063802,0.066413,0.043596},
			{-0.241714,-0.115977,0.072535,0.181383,0.091358,-0.057190,-0.126714,-0.048170,0.057205,0.102693,0.038682,-0.042735,-0.070051,-0.011533,0.054286,0.053855,0.011732,-0.056775,-0.051670,0.004363,0.030127,0.032437,-0.017367,-0.031350,-0.008381,0.042032,0.015909,-0.072818,-0.091446,-0.054818,0.011055,0.070572,0.055168,0.024333,0.014772,-0.009017,-0.006742,-0.027355,-0.066022,-0.043441,0.009841,0.047775,0.050767,-0.011804,-0.022060,-0.003177,0.078645,0.076434,-0.033804,-0.181785,-0.193497,-0.038565,-0.008274,0.167019,0.178081,0.016872,-0.126286,-0.119784,0.002847,0.103103,0.086503,0.005400,-0.087583,-0.069661,0.011611,0.072306,0.045841,-0.025753,-0.067230,-0.035420,0.025874,0.037563,0.015521,-0.041464,-0.035874,0.018004,0.057422,0.040236,-0.083881,-0.063872,0.003702,0.081949,0.079413,0.026547,-0.012655,-0.027995,-0.024648,-0.025616,-0.031112,-0.017467,-0.007164,0.053452,0.055917,0.027253,-0.029230,-0.033666,0.002700,0.054965,0.000523,-0.097042,-0.150375,-0.066900,0.103887,0.257542},
			{-0.063226,-0.038054,-0.030594,0.023266,0.095979,0.080577,0.059987,0.009139,-0.077836,-0.090474,-0.091382,-0.009236,0.052737,0.126795,0.115102,0.064154,-0.030197,-0.083881,-0.115629,-0.055941,-0.004724,0.057977,0.116330,0.062387,0.035268,0.000200,-0.054557,-0.074276,-0.053450,-0.044011,0.035951,0.103628,0.113556,0.088444,0.013857,-0.076178,-0.092421,-0.057281,-0.031956,0.047439,0.067891,0.061010,0.046491,0.013474,-0.032906,-0.075181,-0.093675,-0.030597,0.019821,0.069883,0.102263,0.081359,0.003509,0.049415,0.067016,0.077265,0.015368,-0.050381,-0.095209,-0.100696,-0.067279,0.010454,0.099845,0.102733,0.113771,0.070427,-0.058497,-0.112724,-0.123997,-0.036135,0.052746,0.101896,0.098178,0.102905,0.022381,-0.031481,-0.102899,-0.054364,-0.057893,-0.000817,0.037633,0.076440,0.115275,0.024793,-0.043142,-0.076156,-0.100843,-0.069962,-0.008111,0.034059,0.087174,0.059862,0.014763,-0.036585,-0.049572,-0.041305,-0.043360,-0.016429,-0.012038,0.058875,0.082569,0.051952,-0.005476,-0.054258},
			{0.031456,-0.028811,-0.054598,-0.018186,0.019446,0.014665,-0.044292,-0.037285,-0.011325,0.045593,0.063089,0.013629,-0.034276,-0.049740,0.008411,0.069998,0.042774,-0.039316,-0.093348,-0.078382,0.022252,0.093500,0.068275,-0.010699,-0.077042,-0.068420,0.054311,0.049138,-0.013293,-0.058441,-0.026084,0.019953,0.049103,0.032846,-0.001290,-0.018187,-0.004451,0.026985,0.020156,-0.022748,-0.051301,-0.020405,0.024206,0.047619,0.034563,-0.038377,-0.061263,-0.018577,0.074806,0.086778,0.007322,-0.121731,-0.095944,-0.088057,0.001108,0.038792,0.011707,-0.028233,-0.028593,0.012831,0.066209,0.037103,-0.026002,-0.041669,-0.036456,0.023292,0.043253,0.008586,-0.066810,-0.053637,-0.012393,0.066685,0.093805,0.026125,-0.063200,-0.107951,-0.040980,0.035591,0.036826,-0.050082,-0.073305,-0.020552,0.031050,0.064390,0.029959,-0.034755,-0.032148,0.014882,0.027215,0.002252,-0.054215,-0.048046,0.003960,0.032062,0.054675,0.005134,-0.041208,-0.055805,0.011455,0.070882,0.034483,-0.034854,-0.122657,-0.087637},
			{-0.149831,-0.109021,0.003378,0.089725,0.134921,0.095782,-0.007739,-0.087893,-0.120743,-0.088090,-0.011935,0.043118,0.070376,0.042385,0.012273,0.007732,-0.028166,-0.033057,-0.027755,-0.023876,0.008021,0.013340,0.028880,0.023516,0.005132,-0.041124,-0.035127,0.058459,0.103097,0.078374,0.005370,-0.109702,-0.112319,-0.031590,0.052236,0.109177,0.048525,-0.044258,-0.050680,-0.010024,0.063799,0.084818,-0.008784,-0.093250,-0.122405,-0.022702,0.075098,0.138056,0.089071,-0.011411,-0.119323,-0.098854,-0.006504,0.101223,0.153561,0.102776,0.008160,-0.101294,-0.139721,-0.098170,0.000562,0.055877,0.099592,0.081235,0.014184,-0.029344,-0.057928,-0.046966,-0.019486,0.012409,0.008507,0.033174,0.023882,0.027376,0.009034,-0.044218,-0.066885,-0.044583,0.075995,0.070682,0.007703,-0.089267,-0.115893,-0.049669,0.037534,0.101494,0.084311,0.004632,-0.065774,-0.078883,-0.000142,0.048287,0.044529,-0.050871,-0.095008,-0.058510,0.051127,0.121971,0.130412,0.010936,-0.107498,-0.125641,-0.060671,0.039415},
			{-0.040470,0.059498,0.108425,0.102008,0.028133,-0.066494,-0.125823,-0.102690,-0.011588,0.084530,0.136176,0.104913,0.000754,-0.078305,-0.116572,-0.071217,0.009947,0.064653,0.063600,0.017927,0.008267,0.007953,0.000624,-0.017354,-0.060959,-0.058028,0.088407,0.110642,0.049352,-0.063150,-0.160272,-0.113323,0.019261,0.145668,0.174456,0.074842,-0.068472,-0.152460,-0.131256,-0.039337,0.054351,0.092819,0.086535,0.046646,0.021778,-0.035230,-0.073353,-0.105158,-0.077793,0.013507,0.125106,0.147581,0.117130,0.112098,0.027633,-0.070983,-0.117137,-0.098665,-0.014067,0.077873,0.130620,0.109590,0.013873,-0.085957,-0.131032,-0.089635,0.003602,0.087666,0.087529,0.043605,-0.012476,-0.034337,-0.017918,-0.017076,-0.030591,-0.039696,0.003171,0.058105,0.067590,-0.038086,-0.123536,-0.121776,-0.024386,0.113484,0.181726,0.098017,-0.042042,-0.163327,-0.158395,-0.057612,0.072579,0.132877,0.099858,0.034684,-0.023003,-0.066655,-0.077658,-0.078615,-0.062306,0.015203,0.093424,0.136183,0.090606,-0.024207},
			{0.004002,0.002514,0.006206,-0.009176,-0.002997,-0.022092,-0.008685,-0.006355,0.014122,0.013613,0.003539,-0.006360,0.001158,-0.015671,-0.000975,-0.001816,-0.004065,-0.002719,-0.007599,0.001732,0.008668,0.004044,-0.002054,-0.004005,0.005947,-0.009347,0.000777,-0.005387,0.000866,0.002916,0.012198,0.005129,0.014102,-0.000262,-0.007577,-0.005531,0.002001,0.002511,-0.004157,-0.012236,-0.006662,0.005413,0.004414,0.021637,0.000251,0.000538,-0.011239,-0.000569,0.003648,-0.000941,-0.016133,-0.012034,-0.014636,0.010747,0.000701,-0.019979,-0.005957,0.002459,0.006008,0.011384,0.012602,0.002474,-0.009642,0.007308,-0.001924,0.002570,-0.002910,-0.008874,-0.005583,0.000290,0.021044,0.012509,0.011997,0.001076,-0.003069,-0.008069,0.002285,-0.001138,0.001855,-0.004048,0.004098,0.010023,0.016650,-0.009675,-0.008484,-0.015452,0.007457,-0.003842,0.001325,0.002201,-0.004857,0.007699,0.009446,-0.006883,-0.004832,-0.008361,-0.012170,-0.003932,0.011601,0.007155,0.010012,0.005284,-0.015027,-0.009617},
			{-0.004366,-0.003885,-0.003474,-0.004488,0.002323,0.003961,0.004956,0.005338,-0.000843,-0.003592,-0.003676,-0.004067,-0.003182,0.001067,-0.000154,0.000254,0.005137,0.003007,0.002431,-0.000070,-0.002775,-0.001875,-0.002625,-0.001670,0.000810,0.001682,0.006019,0.002490,-0.001876,-0.007243,-0.007408,-0.000308,0.004722,0.007823,0.002691,-0.007318,-0.007374,-0.005827,0.004557,0.010573,0.008047,0.002023,-0.006259,-0.006316,-0.001638,0.003077,0.002292,-0.001566,-0.003824,-0.002344,0.004902,0.007959,-0.001962,0.001174,0.003129,0.002802,0.005083,0.005791,-0.001209,-0.003897,-0.004725,-0.005697,-0.000032,0.003401,0.002355,0.002036,0.005024,0.001550,0.001290,0.000190,-0.005117,-0.002922,-0.001372,-0.000608,0.002632,0.000910,0.004134,0.003981,-0.000406,-0.007706,-0.007291,-0.001683,0.002853,0.008485,0.006922,-0.004371,-0.005002,-0.007388,0.000795,0.009040,0.009236,0.004527,-0.005521,-0.010590,-0.005884,-0.000331,0.004129,0.002111,-0.001431,-0.002807,0.002019,0.005610,0.005697,0.000332},
			{-0.001486,0.001231,0.002255,-0.000481,0.002386,0.000918,0.000414,-0.003395,0.000546,0.002626,0.001499,0.000539,0.003451,0.002720,0.000610,-0.008882,-0.002027,0.004036,-0.007608,-0.002772,-0.007395,0.008053,0.009489,0.004078,-0.007127,-0.010943,0.002616,0.007434,0.006780,0.001579,-0.008013,-0.003456,-0.006359,-0.002615,0.012213,0.000051,0.000517,0.002048,0.000569,0.001439,-0.009068,-0.011870,-0.005863,-0.003998,0.002836,0.001373,0.010141,-0.000465,0.004695,-0.006955,-0.003279,-0.004670,-0.003868,-0.005771,-0.005842,0.003823,-0.004542,0.003894,-0.001826,-0.002339,0.000108,0.004925,-0.000088,-0.000680,0.002712,-0.007556,0.001200,-0.005497,-0.001894,-0.004447,-0.002734,-0.000276,0.005010,0.006866,-0.003245,-0.003530,-0.000226,-0.006188,0.013799,0.003518,0.001021,-0.003147,-0.009263,-0.001959,0.006995,0.008235,0.006195,-0.003892,-0.005456,0.006879,0.004136,-0.002781,-0.005133,-0.000592,0.003597,0.009340,0.007508,0.003048,-0.000499,0.003740,-0.001773,-0.006016,0.001549,0.009688},
			{0.017033,0.006760,-0.001286,-0.011146,-0.012458,-0.003088,0.007134,0.006469,0.001386,-0.003900,-0.004537,0.003565,0.009373,0.001446,0.003299,-0.011045,-0.008306,-0.005448,0.004290,0.014768,0.005743,-0.000333,-0.005339,-0.008163,0.001929,0.005793,0.004829,-0.016878,-0.019014,-0.011990,0.004895,0.016554,0.014930,0.005082,-0.015278,-0.017773,-0.010310,0.003790,0.012299,0.005284,-0.001349,-0.013396,-0.000344,0.009087,0.005812,-0.003481,-0.013724,-0.007816,-0.001418,0.004483,0.015247,-0.000146,-0.002851,-0.015310,-0.013893,-0.004685,0.002306,0.008831,0.006994,-0.001116,-0.006845,0.002198,0.001541,0.001781,0.002020,-0.005314,-0.003931,-0.005727,0.002519,0.005705,0.011206,0.002990,-0.006662,-0.011332,-0.009947,0.005988,0.007149,0.008939,-0.016326,-0.008668,-0.000675,0.014679,0.019979,0.003630,-0.015293,-0.013266,-0.010103,0.002225,0.014418,0.017505,0.003771,-0.001447,-0.005374,0.003284,0.005116,0.007749,-0.006471,-0.007047,-0.006836,0.003021,0.015682,0.005165,-0.005078,-0.012442},
			{-0.014720,-0.008640,0.003644,0.005728,0.008448,0.004402,-0.000219,-0.000461,-0.001228,0.000164,-0.000164,-0.003124,0.002549,-0.000475,0.003963,0.001836,0.001305,-0.001743,0.000456,-0.002007,-0.006524,-0.004661,-0.000272,0.003933,0.002657,-0.000105,0.001879,0.002035,-0.002390,-0.007872,-0.003252,-0.000047,-0.001524,0.002678,-0.001343,0.002209,-0.001069,0.001404,-0.001221,-0.000168,0.006601,0.001506,0.003851,-0.003052,-0.005694,-0.003380,-0.000697,-0.001541,-0.000101,0.000025,-0.000855,0.000532,0.004984,0.009123,0.014001,0.005713,-0.004401,-0.001457,-0.005086,-0.000406,0.001818,0.000473,0.000515,-0.002563,0.001977,0.002931,0.010637,-0.000206,-0.004790,-0.002276,-0.006806,0.001184,0.001335,0.002018,0.003025,0.002238,-0.001665,-0.002178,-0.001816,-0.000060,-0.004442,-0.002237,0.000409,0.004796,0.000513,0.001428,0.000166,0.003428,-0.004567,0.000514,0.001951,-0.001284,0.004464,0.002215,-0.005073,-0.002795,-0.004650,0.002657,0.000495,-0.001059,0.001449,0.003778,-0.004312,-0.003052},
			{0.017930,0.015024,0.002839,-0.007529,-0.011222,-0.005958,0.001919,0.006483,0.003601,-0.003925,-0.001991,-0.002955,0.000760,0.008063,-0.003859,-0.007914,-0.008731,-0.001489,0.006617,0.014691,0.012059,0.002568,-0.003266,-0.002482,0.005289,0.007974,-0.007977,-0.014792,-0.008453,0.004808,0.005462,0.007803,0.000546,-0.003284,0.001101,0.000482,0.005697,-0.007306,-0.012242,-0.004396,-0.002821,-0.000782,0.010545,0.001844,0.004015,-0.001159,-0.004627,-0.004611,-0.007784,-0.003500,-0.000408,0.009555,0.003042,-0.010649,-0.013972,-0.011358,0.001511,0.007979,0.009603,0.002746,-0.006589,-0.005711,0.000804,0.005545,-0.003815,-0.002735,-0.014191,-0.002879,0.007458,0.008737,0.009430,-0.001571,-0.006912,-0.010669,0.000249,0.001398,0.004340,-0.000884,-0.004721,0.001290,0.009093,0.014297,0.005501,-0.000832,-0.000913,-0.003161,0.000572,-0.006565,-0.002331,-0.010194,-0.004439,0.003624,0.010100,0.005786,0.002656,-0.000553,-0.006048,-0.005235,-0.005487,0.000223,-0.004407,0.006409,0.009959,0.001621},
			{0.003350,-0.030965,-0.008817,0.034924,0.002673,-0.018403,-0.093913,-0.055497,0.032228,0.067293,0.049336,-0.012166,-0.090224,-0.064961,-0.025590,0.061453,0.073408,-0.000269,-0.068445,-0.080265,-0.004489,0.056401,0.075911,0.041748,-0.048079,-0.082505,0.003276,0.048466,0.059593,0.041539,-0.003512,-0.038383,-0.025125,-0.027561,-0.046064,-0.028998,0.034340,0.061348,0.084990,0.028113,-0.034262,-0.078850,-0.078206,-0.019755,0.055614,0.077927,0.053086,0.011814,-0.019942,-0.015122,-0.032744,-0.028271,0.018261,0.020151,0.014945,-0.014779,-0.031195,-0.044973,0.017809,0.050922,0.066275,0.027657,-0.030201,-0.084445,-0.041287,0.036426,0.064890,0.055081,-0.013593,-0.072685,-0.059245,0.033325,0.090257,0.044662,-0.026977,-0.081448,-0.073060,-0.003782,0.052475,0.017314,-0.000450,-0.030601,-0.039512,-0.016004,-0.033226,-0.008179,0.026488,0.036382,0.066557,0.009543,-0.029382,-0.077803,-0.088346,-0.018201,0.059393,0.069341,0.056334,0.007158,-0.013436,-0.046905,-0.036720,-0.014005,-0.013627,0.051942},
			{0.083036,-0.035596,-0.121948,-0.107879,-0.040137,0.048928,0.105001,0.091284,0.017226,-0.052291,-0.085441,-0.049326,0.008830,0.075070,0.087473,0.038707,-0.027109,-0.101416,-0.101246,-0.022380,0.066056,0.140915,0.112194,0.011819,-0.107562,-0.148382,0.043377,0.102049,0.093498,0.004894,-0.079741,-0.070368,-0.017833,0.048492,0.066119,0.012700,-0.029742,-0.053656,-0.044642,0.005755,0.041202,0.034792,0.022122,-0.019993,-0.029034,-0.023918,0.018292,0.046729,0.021576,-0.017263,-0.054450,-0.054407,-0.120329,-0.133005,-0.055431,0.037921,0.109276,0.103677,0.036830,-0.046440,-0.098891,-0.060253,-0.004086,0.052244,0.079693,0.055483,-0.015986,-0.082489,-0.091168,-0.046939,0.049754,0.111917,0.104529,0.010493,-0.090026,-0.135262,-0.092506,0.027502,0.116854,0.047297,-0.055508,-0.089834,-0.049922,0.012454,0.065101,0.055492,-0.011912,-0.067632,-0.051075,0.005544,0.042141,0.057229,0.016707,-0.009218,-0.043919,-0.026330,-0.007743,0.042850,0.020537,-0.013384,-0.034027,-0.046363,-0.027269,0.026042},
			{-0.012352,-0.001089,0.007149,0.013153,0.012212,0.000809,-0.005446,-0.002007,-0.005325,0.000976,0.004793,-0.000421,-0.002641,0.004149,0.002437,0.004023,0.002946,-0.002009,-0.003768,0.002750,0.000797,-0.004471,-0.006704,-0.007457,-0.003098,0.009187,0.002171,-0.004100,-0.012889,-0.009174,0.007019,0.011999,0.004881,-0.004353,-0.009901,-0.007662,0.000302,0.010236,0.006919,0.004101,-0.001773,-0.004457,-0.004566,-0.004194,-0.008213,-0.004357,-0.000219,0.004586,0.010545,0.009625,0.002617,-0.008211,0.007152,0.011339,0.013761,0.001425,-0.008487,-0.010044,-0.009544,-0.000234,0.004784,0.000689,-0.001706,-0.000567,-0.001140,0.003400,0.006665,-0.002032,-0.006087,0.000274,-0.000453,0.001401,-0.002687,-0.002999,-0.003064,0.006628,0.005518,0.004108,-0.011559,-0.006120,-0.001456,0.007598,0.007779,0.000182,-0.010647,-0.008038,-0.003418,0.010748,0.008702,0.004298,-0.002842,-0.010261,-0.007096,-0.002107,0.000105,0.000423,0.002082,0.004482,0.007050,0.008874,0.001480,-0.007035,-0.013364,-0.011189},
			{-0.031024,0.028445,0.003716,0.044638,-0.001059,-0.005327,-0.011233,-0.004464,0.003981,-0.010590,0.001713,0.018577,-0.020730,0.040051,0.000124,-0.026941,-0.004974,0.007660,0.012449,-0.002163,0.017923,-0.022417,0.006445,-0.002958,-0.014470,-0.010871,0.027157,0.026274,-0.011192,-0.024630,-0.005593,0.006565,-0.016758,-0.029274,0.013198,0.013363,0.027381,0.021577,-0.017487,0.002759,-0.023405,0.009937,0.016378,0.001766,-0.017375,0.005751,0.036260,-0.020115,-0.004488,0.019779,0.003866,-0.022060,0.038535,-0.013122,-0.016514,0.019558,-0.006196,0.009469,-0.008736,-0.002178,-0.004435,-0.021004,0.003488,-0.011040,0.003775,-0.015611,-0.020705,0.020499,-0.010438,0.038507,-0.027081,0.006828,0.017274,-0.003293,0.004290,-0.011932,-0.012028,-0.039728,-0.023897,0.013340,0.004859,0.009020,0.011742,0.018453,0.036339,0.008425,0.004332,0.006953,-0.006677,0.032025,0.011725,-0.034154,-0.036860,0.042190,0.019580,0.003856,-0.028404,0.006848,0.014239,-0.023304,-0.012624,-0.017064,0.006064,0.023166},
			{-0.150693,-0.085093,-0.029386,0.006761,0.019519,0.033326,0.057738,0.099356,0.082703,0.017664,-0.056811,-0.090774,-0.090588,-0.051606,-0.015824,0.027000,0.058415,0.074508,0.082931,0.052151,0.007912,-0.042802,-0.077044,-0.090935,-0.079250,-0.041666,0.059638,0.084621,0.093919,0.057335,0.006482,-0.040518,-0.067315,-0.069452,-0.043646,-0.033601,0.002471,0.044440,0.072801,0.093158,0.071124,0.006774,-0.052856,-0.086921,-0.060506,-0.046425,-0.023453,-0.016578,-0.001615,0.044944,0.129139,0.154406,0.007805,0.065956,0.080707,0.060002,0.047163,0.051480,0.040564,-0.012422,-0.068405,-0.095797,-0.087345,-0.027755,0.021278,0.071728,0.070884,0.072999,0.045107,0.033809,-0.018163,-0.070884,-0.091421,-0.087445,-0.056255,-0.000861,0.051448,0.089619,0.065245,0.012308,-0.036114,-0.077490,-0.090438,-0.079062,-0.028980,0.008464,0.051983,0.064881,0.074149,0.062715,0.026906,-0.014537,-0.078641,-0.110914,-0.080457,-0.021115,0.030152,0.042551,0.026028,0.039318,0.065865,0.098313,0.048653,-0.043639},
			{0.019683,0.168944,0.185689,0.060058,-0.076922,-0.141492,-0.072578,0.026683,0.078433,0.069430,-0.007497,-0.077547,-0.062878,-0.019860,0.080043,0.109119,0.059439,-0.035750,-0.113199,-0.106597,-0.054684,0.051743,0.123011,0.104650,0.036865,-0.071388,-0.103233,-0.008814,0.072243,0.087569,0.075754,0.004422,-0.046749,-0.051412,-0.034981,-0.018689,-0.018779,-0.001068,0.025515,0.063648,0.065411,0.027832,-0.040461,-0.079150,-0.086436,-0.025697,0.020717,0.055285,0.059055,0.041215,0.020158,0.001703,0.186794,0.094492,-0.050245,-0.147803,-0.133792,-0.019905,0.074620,0.102450,0.035673,-0.058364,-0.091581,-0.033187,0.046451,0.094785,0.069434,-0.028255,-0.097953,-0.107290,-0.044355,0.045696,0.107155,0.116838,0.045935,-0.060905,-0.138128,-0.120475,0.077283,0.128062,0.080191,0.000137,-0.059322,-0.080121,-0.052086,-0.005385,0.008501,0.030401,0.029839,0.053738,0.038169,0.013258,-0.026640,-0.080902,-0.083522,-0.015534,0.043817,0.080205,0.073469,0.028649,-0.005072,-0.029835,-0.051156,-0.087148},
			{0.001159,-0.003358,-0.005748,-0.003990,-0.002569,0.001932,0.003582,0.003801,0.002457,0.000991,-0.000485,-0.001403,-0.002488,-0.000840,-0.000163,0.000618,-0.000376,0.000801,0.001377,0.001605,0.002480,0.001184,0.000637,-0.000996,-0.003210,-0.001048,-0.000948,0.000928,0.000821,0.001611,0.000727,0.001351,-0.000962,-0.000443,-0.000350,-0.000420,-0.002090,-0.002583,-0.001344,0.000597,0.002235,0.003180,0.003643,0.001064,-0.000496,-0.002695,-0.002849,-0.003851,-0.002629,-0.000087,0.003295,0.004459,-0.005098,-0.006763,-0.002349,0.003541,0.004333,0.003655,0.002828,0.000638,-0.002507,-0.003249,-0.002212,-0.003919,-0.000073,0.000814,0.001500,0.002530,0.001161,0.000442,-0.000057,-0.000114,-0.001717,-0.001584,-0.002783,-0.001547,-0.001412,0.000268,0.001733,0.002573,0.001431,-0.000196,-0.002059,-0.000027,-0.000983,-0.000235,-0.002483,-0.000319,-0.000710,-0.000161,0.002799,0.002186,0.002432,0.003394,-0.000301,-0.002794,-0.003009,-0.003467,-0.001903,0.000884,0.002013,0.002652,0.005443,0.003638},
			{0.073287,0.051173,-0.019206,-0.068350,-0.077823,-0.003441,0.026109,0.039999,-0.004598,-0.043936,-0.033251,0.020614,0.066922,0.039405,-0.022400,-0.069364,-0.058996,-0.021060,0.019588,0.032320,-0.000312,-0.020294,-0.011226,0.023057,0.031775,0.004735,-0.064202,-0.041237,0.007294,0.033526,0.040689,0.000895,-0.005277,0.009882,0.023507,0.000429,-0.029856,-0.052620,-0.036003,0.010239,0.049224,0.050019,0.000988,-0.026800,-0.012348,0.005671,0.015186,-0.015606,-0.026051,-0.037123,-0.002536,0.031413,0.011447,-0.074689,-0.086423,-0.031010,0.031715,0.065949,0.040003,-0.026257,-0.040691,-0.006734,0.039589,0.052935,0.005839,-0.057851,-0.078477,-0.031113,0.031614,0.065023,0.037454,-0.012087,-0.018282,-0.015352,0.011278,0.016691,-0.018054,-0.055773,-0.006726,0.032807,0.051044,0.030388,-0.014339,-0.010985,-0.011759,0.001214,-0.011093,-0.029140,-0.028538,0.004994,0.032180,0.058639,0.024683,-0.025974,-0.033127,-0.022495,0.012171,0.005394,0.003023,-0.022363,-0.014684,0.031182,0.036640,0.047481},
			{0.149573,0.108530,-0.003231,-0.089488,-0.134702,-0.095742,0.007388,0.087491,0.120652,0.087982,0.011956,-0.043028,-0.070245,-0.042137,-0.012224,-0.007592,0.028061,0.032733,0.027798,0.023619,-0.008139,-0.013297,-0.028507,-0.023369,-0.005146,0.041133,0.034895,-0.058476,-0.103120,-0.078437,-0.005310,0.109502,0.112381,0.031670,-0.051820,-0.108834,-0.048429,0.044000,0.050329,0.009803,-0.063693,-0.084784,0.008907,0.093171,0.122191,0.022557,-0.075041,-0.137582,-0.088610,0.011409,0.118821,0.098073,0.006575,-0.101259,-0.153285,-0.102418,-0.008234,0.101091,0.139417,0.098073,-0.000389,-0.055524,-0.099257,-0.080991,-0.014323,0.029326,0.057715,0.046813,0.019345,-0.012450,-0.008649,-0.033082,-0.023825,-0.027265,-0.009217,0.044100,0.066595,0.044337,-0.076170,-0.070824,-0.007576,0.089065,0.115966,0.049753,-0.037384,-0.101224,-0.084088,-0.004763,0.065423,0.078479,-0.000044,-0.048112,-0.044242,0.051180,0.095017,0.058603,-0.050932,-0.121807,-0.130089,-0.010868,0.107047,0.125044,0.060210,-0.039129},
			{0.168039,0.115193,-0.002813,-0.056896,-0.062130,-0.098908,-0.025984,0.036835,0.091869,0.103270,0.053598,0.039740,-0.027020,-0.068393,-0.050384,-0.040076,0.005328,0.084083,0.073908,0.076120,0.022264,-0.058990,-0.032796,-0.102596,-0.082421,-0.026031,0.081700,0.073735,0.038157,-0.024527,-0.083306,-0.070753,-0.050558,0.039780,0.093379,0.103365,0.087409,0.041728,-0.038505,-0.025627,-0.063883,-0.073554,-0.062852,-0.004553,0.027698,0.074418,0.091930,0.073312,0.007800,-0.092107,-0.118299,-0.124532,0.012887,-0.084632,-0.154699,-0.072682,-0.078648,-0.014363,0.077956,0.077760,0.048528,0.023201,-0.017912,-0.103344,-0.054839,-0.002756,0.010410,0.068602,0.047492,0.103099,0.067734,-0.010292,-0.062927,-0.021669,-0.051446,0.009672,0.010616,0.110936,-0.010079,-0.047461,-0.094171,-0.116339,-0.032570,-0.015098,0.066996,0.104937,0.087288,0.034967,-0.053833,-0.114528,-0.064930,-0.045276,-0.034636,-0.006880,0.032011,0.090658,0.126374,0.048650,-0.056662,-0.090890,-0.102105,-0.115296,0.003237,0.131403},
			{-0.026494,-0.083821,-0.064935,-0.059077,0.018309,-0.005797,0.030488,-0.009418,0.027524,0.040900,0.019802,-0.027777,-0.027894,-0.096774,-0.020614,0.017642,0.051059,0.047054,-0.024127,-0.039640,-0.039722,-0.005808,0.030070,0.015064,0.016867,-0.043486,0.009703,0.018913,0.007341,-0.032792,-0.007854,0.000009,0.069106,0.053195,0.010295,-0.042740,-0.065008,-0.030810,0.005322,0.024265,0.010020,-0.016256,-0.048860,0.035117,0.039681,0.084007,0.015181,-0.049923,-0.096304,-0.113153,-0.061787,0.047899,-0.143331,-0.030028,0.025072,0.040765,0.047401,0.028282,-0.013307,0.002479,0.019675,-0.000979,-0.046824,-0.016799,-0.024922,0.017301,0.055323,0.031177,-0.002253,-0.046303,-0.006323,-0.004709,0.048565,0.059348,0.021616,-0.021048,-0.028073,-0.027639,0.028206,-0.005282,-0.017888,-0.002783,0.054123,0.025464,0.015743,-0.045061,-0.042775,-0.056534,-0.003699,0.064406,0.046496,0.030188,-0.011015,-0.057364,-0.004440,0.042156,0.032246,-0.024495,-0.051530,-0.070810,-0.004069,0.069859,0.096894,0.082246},
			{0.001996,0.002913,0.000612,-0.000036,-0.002059,0.002326,0.003466,0.003037,-0.003105,-0.004573,-0.002938,0.000427,0.003318,0.006639,0.000753,-0.002799,-0.002850,-0.002741,0.001927,0.002828,-0.001192,-0.000620,-0.000526,0.000070,0.000149,0.002713,-0.000485,0.000380,-0.000168,-0.000307,-0.003006,-0.001858,-0.003072,0.000214,0.003335,0.001712,-0.000955,-0.002632,-0.001023,0.002406,0.002858,0.000740,-0.000966,-0.004793,-0.001237,0.000195,0.002704,0.000054,-0.001429,-0.000647,0.002702,0.003713,0.004890,-0.002909,-0.003175,0.000896,0.001418,0.002106,-0.000016,-0.002395,-0.004554,-0.002285,0.003615,0.001938,0.001890,-0.001941,-0.002988,-0.002644,0.001387,0.002710,-0.001735,-0.000635,-0.002795,-0.001748,0.001009,0.002790,0.000628,-0.000496,-0.000893,0.000951,-0.000293,-0.001579,-0.003274,0.001566,0.002940,0.003594,-0.001007,-0.000941,-0.002503,-0.000316,0.002558,0.001214,-0.000582,0.000487,-0.000688,0.000535,0.002496,0.001529,-0.001488,-0.001597,-0.001716,-0.000274,0.003977,0.001540},
			{-0.035808,-0.047510,0.009002,-0.015336,-0.035976,-0.030206,0.008279,0.045134,0.066313,0.022833,-0.054199,-0.104711,-0.063054,-0.023399,0.047211,0.063979,0.022174,-0.025301,-0.004706,0.040230,0.017794,-0.029515,-0.072651,-0.128270,-0.059096,0.051105,0.110936,0.058973,-0.052698,-0.133976,-0.081585,-0.078649,0.001956,0.053065,0.089290,0.094075,0.055228,-0.022826,-0.090383,-0.119449,-0.079109,0.002090,0.081831,0.133532,0.064261,0.001476,-0.103479,-0.100974,-0.050544,0.005827,0.035989,0.065874,-0.011798,-0.020697,0.008153,0.027123,0.009634,0.034986,0.032289,0.021701,-0.028424,-0.080194,-0.071918,-0.012538,0.046593,0.084314,0.047825,-0.022664,-0.025332,-0.012031,0.010662,0.004998,-0.056449,-0.078009,-0.061792,0.041172,0.083101,0.098954,-0.079302,-0.128300,-0.107441,-0.063648,0.045266,0.086387,0.064688,0.079645,0.025982,-0.023688,-0.081842,-0.101312,-0.084195,0.004784,0.102568,0.137129,0.091480,0.021116,-0.072926,-0.113831,-0.038833,0.012488,0.072159,0.076181,0.042951,0.013758},
			{0.044956,0.093869,0.068275,0.044760,0.035466,0.050678,0.023038,-0.024903,-0.093001,-0.116275,-0.072424,0.010679,0.070657,0.069803,0.047140,0.031000,0.036508,0.013549,-0.019489,-0.064278,-0.096751,-0.074940,-0.036362,0.015647,0.042805,0.057664,0.087205,0.039346,-0.033425,-0.117958,-0.139067,-0.088439,0.011226,0.078259,0.088387,0.036351,0.020670,0.034639,0.045293,0.023108,-0.048337,-0.126633,-0.134882,-0.061653,0.058668,0.110305,0.100626,0.044509,0.015070,0.012341,0.014305,-0.043365,0.138710,0.047924,-0.003745,-0.021656,-0.010965,-0.026324,-0.069851,-0.100185,-0.061314,0.030543,0.090567,0.114345,0.060263,0.010657,-0.024092,-0.027230,-0.035742,-0.052417,-0.070189,-0.065787,-0.005305,0.034052,0.071927,0.077616,0.066104,0.038788,-0.054516,-0.116369,-0.129495,-0.071881,0.021153,0.104379,0.125699,0.073631,0.012082,-0.029371,-0.013986,0.001609,-0.047796,-0.082100,-0.109209,-0.058420,0.053520,0.138452,0.132408,0.058471,-0.027049,-0.066239,-0.048066,-0.026132,-0.080042,-0.101892},
			{0.010567,0.001772,-0.007699,0.001407,0.013648,0.003325,0.002629,-0.008213,-0.004832,-0.001803,0.015680,0.016298,0.014306,0.004043,-0.002705,-0.010653,-0.005577,0.004102,0.005412,-0.002488,0.006260,-0.003569,0.002004,-0.001440,-0.008305,-0.004168,-0.003387,-0.008964,-0.003354,0.003131,0.002854,0.011669,0.014190,-0.002670,0.007928,0.006647,-0.003262,0.001620,-0.013644,-0.008544,-0.001925,0.001065,0.013272,0.010209,-0.002942,-0.014426,-0.012906,0.005855,0.007678,0.003858,-0.012222,-0.018307,-0.008426,-0.004483,-0.002701,0.001077,0.004634,-0.005644,-0.009160,-0.008904,0.008443,0.011831,0.011401,0.004924,-0.011876,-0.013798,-0.009308,-0.001722,-0.003024,0.015322,0.007321,0.000734,0.001303,0.002901,-0.010551,-0.003151,0.000095,-0.000109,0.001302,0.002211,0.003367,0.002431,0.009738,-0.005972,0.008343,-0.002118,-0.002331,0.004531,-0.009694,-0.009812,-0.000831,0.000905,0.011715,0.009036,-0.001059,-0.011183,-0.008624,-0.002180,0.000662,0.008243,-0.002219,-0.011433,-0.002750,0.001268},
			{0.025182,0.060767,0.091053,0.084840,0.034185,-0.045123,-0.112412,-0.136563,-0.098498,0.029129,0.134120,0.168531,0.113569,-0.027874,-0.112299,-0.143880,-0.110098,-0.047522,0.042016,0.139792,0.130545,0.088084,-0.002706,-0.102625,-0.131074,-0.106136,0.050360,0.076787,0.051172,-0.002382,0.015882,0.019734,0.018353,-0.016847,-0.091351,-0.121113,-0.059766,0.049900,0.138610,0.145265,0.052329,-0.068358,-0.135500,-0.106058,-0.036377,0.060595,0.079884,0.080178,0.034050,-0.000550,-0.053379,-0.056040,0.065486,0.038887,0.018387,-0.044834,-0.098513,-0.117751,-0.073410,0.033674,0.126608,0.159041,0.096027,-0.029741,-0.133797,-0.154996,-0.109093,-0.024728,0.090084,0.139049,0.134311,0.069063,-0.039545,-0.119776,-0.136484,-0.096384,-0.031930,0.070018,0.070475,0.028831,-0.026511,-0.029032,-0.001335,-0.020366,-0.067428,-0.068990,-0.060379,0.032297,0.126295,0.153285,0.054294,-0.068955,-0.145352,-0.130156,-0.044692,0.085402,0.115826,0.107470,0.041642,-0.046905,-0.059838,-0.064061,-0.066768,-0.043867},
			{-0.020215,-0.170849,-0.188082,-0.060621,0.078093,0.143563,0.073790,-0.026870,-0.079663,-0.070423,0.007513,0.078533,0.063716,0.020020,-0.080946,-0.110564,-0.060139,0.036426,0.114472,0.108099,0.055496,-0.052342,-0.124802,-0.106045,-0.037389,0.072163,0.104721,0.009082,-0.072903,-0.088386,-0.076753,-0.004465,0.046906,0.051755,0.035048,0.018722,0.019080,0.001420,-0.025493,-0.064086,-0.066175,-0.028093,0.040758,0.079799,0.087306,0.025961,-0.020756,-0.055968,-0.059750,-0.041613,-0.020166,-0.001382,-0.189077,-0.095184,0.051077,0.149628,0.135448,0.020012,-0.075598,-0.103894,-0.036307,0.058924,0.092673,0.033466,-0.046761,-0.095960,-0.070220,0.028725,0.099205,0.108577,0.045020,-0.046316,-0.108461,-0.118350,-0.046336,0.061697,0.140019,0.122203,-0.077899,-0.129335,-0.081293,-0.000107,0.059648,0.080830,0.052625,0.005398,-0.008601,-0.030458,-0.029916,-0.054052,-0.038471,-0.013595,0.026648,0.081466,0.084256,0.015447,-0.044388,-0.080965,-0.074252,-0.028914,0.005262,0.030262,0.051831,0.087907},
			{-0.166567,-0.131318,-0.016547,0.080699,0.112082,0.127827,0.052842,-0.028011,-0.093478,-0.129277,-0.081600,-0.025065,0.051936,0.073358,0.083956,0.060889,0.005095,-0.079572,-0.094959,-0.091229,-0.030920,0.032617,0.054742,0.104506,0.074913,0.003759,-0.103280,-0.098981,-0.057396,0.030948,0.090154,0.107822,0.090184,0.012544,-0.083367,-0.122775,-0.119460,-0.073496,0.034461,0.073905,0.104498,0.094007,0.046655,-0.007664,-0.050930,-0.084155,-0.102632,-0.085881,-0.014424,0.109222,0.156082,0.144233,-0.000927,0.094236,0.163494,0.112515,0.067670,-0.026248,-0.096457,-0.120837,-0.080464,-0.012682,0.049476,0.111569,0.073761,0.022880,-0.019484,-0.078077,-0.083518,-0.084674,-0.047790,0.034277,0.082535,0.057496,0.053463,-0.017650,-0.051393,-0.106116,-0.017190,0.042624,0.097808,0.115390,0.061634,0.019663,-0.067645,-0.131492,-0.121366,-0.050206,0.053724,0.122893,0.105028,0.074252,0.018116,-0.030387,-0.082084,-0.100808,-0.093844,-0.037879,0.053082,0.090959,0.144044,0.131806,0.013441,-0.127430},
			{-0.006421,-0.007218,0.003626,0.008792,0.004706,-0.001190,-0.006266,-0.005106,-0.002227,0.003805,0.001975,0.000169,0.000287,-0.001005,-0.001045,0.003051,0.004009,-0.000099,-0.001664,-0.003527,-0.006525,-0.002613,0.001358,0.004265,0.001268,0.001288,-0.005102,-0.004043,-0.001974,0.001888,0.003475,0.001897,0.000067,-0.001554,-0.001171,0.000195,0.002693,0.003235,0.000617,-0.001180,-0.002105,-0.001996,-0.002445,-0.000963,0.001334,0.003691,0.005715,0.000295,-0.003673,-0.003499,-0.004840,0.000402,0.001894,0.003600,0.007589,0.001610,-0.005643,-0.005976,-0.003040,0.002647,0.004413,0.003085,0.000282,-0.003128,-0.000034,0.001535,0.004515,-0.000459,-0.001195,-0.005021,-0.005464,-0.001658,0.001044,0.000733,0.001828,0.002882,-0.003736,-0.004755,-0.004142,0.004152,0.004003,0.002875,-0.000159,-0.002411,-0.002283,-0.000407,0.002077,0.000126,0.000546,0.002128,-0.003704,-0.001570,-0.001885,0.000739,0.000350,0.002455,0.004112,0.002889,0.000417,-0.005313,-0.004818,0.001751,0.000220,0.003516},
			{-0.042847,-0.105864,-0.113293,-0.040595,0.028941,0.106361,0.088973,0.037126,-0.028978,-0.025429,-0.008440,-0.013823,-0.045769,-0.036158,-0.012031,0.038900,0.086439,0.075505,0.010330,-0.058694,-0.092933,-0.037985,0.030231,0.042745,0.009144,0.009962,0.008487,0.035017,-0.005755,-0.050894,-0.067297,-0.022406,0.014309,0.064993,0.049045,-0.016462,-0.075611,-0.047162,0.016914,0.071203,0.034138,-0.040268,-0.065066,-0.046132,0.050123,0.095874,0.069189,-0.056327,-0.129624,-0.128802,-0.000826,0.109249,-0.106845,-0.085223,0.020985,0.135942,0.094041,0.035459,-0.033180,-0.058892,-0.052395,-0.028743,-0.013574,-0.050216,-0.005807,0.021005,0.082965,0.082685,0.022563,-0.061522,-0.113717,-0.072807,-0.005182,0.066015,0.056717,0.027530,-0.029066,-0.024553,0.009943,0.003787,-0.039969,-0.042249,-0.007740,0.073785,0.060804,0.024228,-0.079181,-0.049794,-0.019094,0.050954,0.068443,-0.000150,-0.047648,-0.024141,0.021782,0.083432,0.081867,-0.016289,-0.116314,-0.120706,-0.053732,0.059254,0.176113,0.140174},
			{-0.026816,0.043278,0.057472,0.036564,0.013549,-0.006234,-0.008593,-0.012815,-0.042269,-0.056058,-0.023994,0.042099,0.100003,0.112135,0.043554,-0.051214,-0.129573,-0.122277,-0.038424,0.049497,0.128070,0.125794,0.058164,-0.021890,-0.093808,-0.120882,-0.008488,0.077666,0.132592,0.119113,0.029689,-0.064663,-0.135695,-0.123291,-0.035453,0.076191,0.142508,0.131372,0.045866,-0.068732,-0.145255,-0.138871,-0.045336,0.067862,0.157475,0.138668,0.038350,-0.087425,-0.158996,-0.112456,0.010313,0.112271,0.068502,0.059944,0.014547,-0.034208,-0.032161,-0.024260,-0.020265,-0.023277,-0.010391,0.024234,0.070312,0.092852,0.035881,-0.047116,-0.121669,-0.118357,-0.049135,0.067477,0.128280,0.123463,0.047856,-0.044571,-0.108446,-0.129523,-0.069319,0.012225,0.134620,0.100480,0.016115,-0.078179,-0.139036,-0.119722,-0.021058,0.069885,0.143265,0.127903,0.040008,-0.076231,-0.148516,-0.140204,-0.049400,0.063131,0.146764,0.142480,0.046194,-0.078787,-0.169047,-0.136903,-0.023073,0.108565,0.149150,0.072892},
			{0.038738,-0.057314,-0.104353,-0.098022,-0.026874,0.064093,0.121144,0.098813,0.011011,-0.081416,-0.131151,-0.101080,-0.000886,0.075346,0.112351,0.068711,-0.009466,-0.062261,-0.061435,-0.017283,-0.007895,-0.007573,-0.000702,0.016643,0.058726,0.055869,-0.085035,-0.106566,-0.047519,0.060844,0.154403,0.109224,-0.018570,-0.140413,-0.168358,-0.072204,0.066032,0.147051,0.126690,0.037989,-0.052399,-0.089404,-0.083440,-0.045036,-0.021088,0.033909,0.070708,0.101403,0.075065,-0.012889,-0.120515,-0.142187,-0.112853,-0.107641,-0.026335,0.068332,0.112728,0.094782,0.013403,-0.075034,-0.125752,-0.105556,-0.013469,0.082777,0.126285,0.086441,-0.003291,-0.084459,-0.084407,-0.042087,0.012056,0.033156,0.017355,0.016425,0.029500,0.038193,-0.002964,-0.055850,-0.065063,0.036675,0.118914,0.117376,0.023518,-0.109405,-0.175158,-0.094518,0.040542,0.157464,0.152875,0.055632,-0.069971,-0.128125,-0.096345,-0.033608,0.022065,0.064131,0.074778,0.075879,0.060208,-0.014562,-0.089962,-0.131231,-0.087457,0.023086},
			{0.006158,-0.001851,0.002959,0.006449,0.000733,-0.004850,0.002224,-0.005473,-0.002108,0.001104,0.003475,0.003843,0.007036,0.006633,-0.003308,-0.012734,-0.003038,-0.000853,0.002835,0.005064,-0.006529,-0.002450,0.006443,0.004284,-0.000572,0.002896,-0.009924,0.009361,-0.000436,0.006386,0.004583,-0.008669,-0.008840,-0.005568,0.000462,0.001453,0.010138,0.001971,-0.001515,-0.001362,0.003211,-0.000741,-0.002541,-0.005770,-0.000190,0.000883,0.004252,0.007038,0.006520,-0.005473,-0.002522,-0.010066,0.004009,0.000575,-0.004597,-0.001041,-0.002331,-0.003332,-0.001211,0.004019,0.001868,0.001874,0.005018,0.004004,-0.002377,-0.011455,-0.002607,-0.000771,0.003048,0.006884,-0.005471,-0.002900,0.003974,-0.001483,0.002090,0.003891,-0.003449,-0.008274,-0.002508,0.005327,0.011032,-0.008891,-0.005953,-0.004439,-0.001254,0.003069,0.011902,0.002779,-0.002608,0.001079,-0.002085,-0.000246,-0.000044,0.000790,0.000206,0.000299,0.002899,0.004377,-0.000000,-0.003537,-0.002287,-0.009653,-0.003995,0.008153},
			{0.074502,0.020135,-0.058506,-0.102830,-0.090157,-0.032284,0.021019,0.090740,0.059949,0.040809,0.018417,-0.009572,-0.059870,-0.093526,-0.069944,0.040556,0.093208,0.091248,0.070977,-0.002047,-0.069471,-0.097443,-0.070830,0.013080,0.079667,0.063419,-0.009173,-0.028818,-0.022728,-0.033322,-0.019475,-0.012974,0.021414,0.069063,0.056053,0.039500,0.001897,-0.056382,-0.051438,-0.041275,-0.005922,0.024217,0.038984,0.041222,0.063987,0.069317,0.009131,-0.025947,-0.117827,-0.084138,-0.061351,0.056353,-0.065460,-0.104378,-0.054663,-0.042164,0.065994,0.084645,0.080260,0.033207,-0.011052,-0.050161,-0.058131,-0.050969,-0.055334,0.027793,0.054596,0.082937,0.074148,0.024195,-0.087069,-0.100004,-0.095746,-0.019792,0.086678,0.066491,0.021116,-0.004336,-0.053133,-0.029772,-0.025374,-0.004877,0.031104,0.044181,0.048079,0.027117,-0.023541,-0.067486,-0.054091,-0.052957,-0.024613,0.011775,0.041254,0.033855,0.025765,0.043233,-0.008684,-0.019072,-0.080249,-0.122868,-0.045223,0.068045,0.084582,0.063865},
			{-0.008936,-0.017740,-0.013014,-0.001050,0.011318,0.009609,0.001130,-0.004561,-0.006352,-0.001427,0.006931,0.008600,0.003961,0.000210,-0.005991,0.004334,0.016483,0.000741,0.004777,-0.010653,-0.009746,0.003490,0.017161,0.007517,0.000721,-0.008171,0.000666,0.005140,0.007958,0.001238,-0.007427,-0.002813,0.000713,0.001930,0.002561,-0.000351,0.000805,0.002925,0.003955,-0.003017,-0.003636,-0.008757,-0.001305,0.002279,0.006658,0.003456,0.000305,0.000672,-0.006132,-0.004372,-0.000516,0.004267,-0.017194,0.000288,0.009317,0.015269,0.009856,0.001465,-0.010185,-0.005533,0.003881,0.010763,0.007237,0.002540,-0.009653,-0.000196,0.010750,0.005656,0.000677,-0.005117,-0.014935,-0.005219,0.008869,0.008909,0.003709,-0.006253,-0.014470,-0.001501,0.009378,0.005022,-0.005211,-0.009642,-0.002569,-0.001948,0.009805,0.001851,0.003926,-0.001285,0.002446,-0.001495,-0.001995,-0.004440,-0.006241,0.001774,0.004530,0.008506,0.003133,-0.001058,-0.009993,-0.005707,-0.003037,0.006314,0.007882,-0.000956},
